distance_km,days_late,review_score,product_weight_g
302,-9,5,650
435,-15,5,850
377,-1,1,1614
321,-20,4,2850
278,-13,5,700
262,-12,4,588
339,-21,5,450
716,-12,5,300
2286,-6,5,8250
502,-18,4,300
2372,-3,5,2100
1605,-4,4,200
645,-24,5,260
838,-24,4,1000
359,-10,5,300
767,-6,4,2750
2136,-3,5,300
818,-14,4,1400
598,-21,5,475
86,-4,4,9900
692,-12,5,50
505,-3,4,2500
593,-13,5,2050
811,-18,5,700
16,-7,4,950
16,-7,4,950
347,-11,3,429
332,-19,5,7850
869,-29,5,450
1310,-29,5,450
869,-29,5,200
1310,-29,5,200
694,22,1,1000
449,-4,5,23250
745,3,5,3950
648,12,1,3150
521,-8,1,1300
521,-8,1,1300
NULL,32,NULL,300
31,-25,5,127
74,-13,5,1000
74,-13,5,400
1019,-15,3,1600
390,-12,5,870
309,-9,5,1300
309,-9,5,1300
309,-9,5,1300
309,-9,5,1300
184,-27,4,2275
355,-15,5,100
308,-11,2,15475
341,-9,5,8100
311,0,4,183
331,-31,5,250
331,-31,5,250
2271,-13,5,1092
298,-6,3,12250
745,-28,5,245
745,-28,5,245
2100,-7,5,100
72,-10,1,5650
683,-18,5,2500
829,-18,5,4500
606,-20,5,900
89,-3,4,300
17,-5,5,1110
451,-13,5,4105
550,-19,4,850
550,-19,4,900
70,-7,5,100
52,2,1,100
802,-18,5,6300
336,-16,4,200
2318,-4,5,250
31,60,4,2450
307,26,2,548
77,-14,5,422
29,-1,4,450
349,0,1,1400
349,0,1,3900
564,-21,3,5450
796,-9,4,2200
565,-14,5,350
565,-14,5,350
37,-6,1,2550
1947,-21,4,400
516,-14,5,300
537,-9,5,300
2753,-38,5,625
NULL,-3,NULL,550
915,-12,5,6550
81,-6,4,350
37,-14,5,175
203,-1,1,14600
3,-6,5,230
79,-15,2,200
16,2,1,200
533,-9,5,150
825,0,5,2841
362,-15,5,2250
435,-14,5,517
435,-14,5,517
435,-14,5,517
877,-14,5,2500
NULL,-7,NULL,2200
864,-16,3,100
402,-7,4,2600
256,-9,3,2000
NULL,-9,NULL,1450
183,-21,5,200
50,-7,4,150
24,-1,5,150
472,-19,4,16550
765,-14,2,2500
494,-20,5,250
452,-15,3,2600
2379,-18,2,250
1956,-19,5,575
74,-7,5,150
165,-13,5,3000
799,-9,3,350
799,-9,3,350
259,-15,4,4338
1010,-16,5,150
782,-12,5,50
28,-27,5,100
876,-4,4,175
779,-17,5,600
340,-33,5,850
133,-5,4,100
74,-15,5,150
344,-9,3,6250
52,-9,4,1750
1118,-10,1,700
1118,-10,1,700
737,-18,5,1450
115,-13,5,1110
342,2,5,1400
846,-17,5,275
477,-14,5,501
9,-9,4,250
224,-13,5,550
857,-25,3,775
950,-25,3,775
857,-25,3,800
950,-25,3,800
857,-25,3,500
950,-25,3,500
857,-25,3,600
950,-25,3,600
214,-23,1,200
85,-8,4,250
177,-21,5,400
336,-36,5,500
222,-12,5,4250
4,-13,2,200
455,8,5,1100
237,7,1,2550
237,7,1,2550
523,-20,5,150
904,-17,1,200
576,-7,5,250
152,-12,5,450
3180,-15,4,1900
29,-7,5,150
825,-30,4,850
319,-21,4,1383
608,-15,5,200
48,-16,5,7900
678,-8,5,1650
873,-10,5,150
369,-13,3,8700
114,-1,1,18800
206,-20,4,1350
674,-21,5,1550
326,-11,4,600
794,-20,4,900
794,-20,4,900
794,-20,4,900
794,-20,4,900
700,-15,1,1655
2123,-17,5,1400
333,-19,5,6550
670,-18,4,100
92,-7,5,900
291,-7,5,342
339,-29,4,400
507,-13,5,500
586,-3,4,30000
312,-14,5,3050
293,-6,4,200
646,-16,5,3750
162,-15,4,450
485,-17,4,200
548,-16,5,13805
53,0,1,2000
33,-19,4,850
154,-11,5,950
318,0,5,200
566,-22,5,1383
397,-8,5,1650
397,-8,5,1650
865,-6,5,1050
80,-9,4,200
38,-4,1,468
249,-13,5,1800
393,-7,3,600
22,-9,3,800
318,2,3,300
257,-20,4,9375
504,-15,4,250
339,-4,5,1800
686,-15,5,9800
103,-20,4,2965
847,-13,5,2500
70,-7,5,150
128,-8,5,2500
642,-7,4,2650
719,-15,2,750
NULL,-10,NULL,180
NULL,-10,NULL,180
NULL,-10,NULL,180
339,-6,5,350
780,-14,5,150
576,-15,1,550
1194,-10,5,1500
1445,4,1,3407
170,-15,5,1200
437,-26,5,750
1077,-12,4,150
1077,-12,4,150
1077,-12,4,150
48,-5,5,418
596,-21,5,207
310,8,2,1550
9,2,1,150
9,2,1,150
1616,-11,5,300
547,-35,5,950
173,-2,5,700
904,9,1,350
87,-1,5,1800
100,-2,3,710
1764,23,4,533
2360,-9,4,350
2237,-1,5,217
872,6,1,173
872,6,1,173
60,-14,5,500
293,-6,5,584
1832,-7,2,321
2361,-24,5,2850
12,-14,1,200
901,-19,5,525
858,-8,4,100
289,-1,5,1350
226,-16,5,1600
491,-25,5,150
19,-12,5,200
868,-8,5,28600
1,-23,5,700
664,-2,1,1750
95,-6,5,150
626,-21,5,250
2414,-41,5,367
238,-20,5,7700
15,-12,5,1338
1253,2,3,400
1191,-10,5,1000
346,-17,5,1600
472,-15,3,1550
472,-15,3,1550
17,1,1,388
17,1,1,388
17,1,1,388
17,1,1,388
318,-7,5,6550
1465,-14,4,200
465,-13,5,450
465,-13,5,450
351,-16,5,325
2299,-30,1,88
45,-13,5,3500
534,-5,5,250
689,-7,5,225
476,-7,5,3300
1033,-21,1,150
1033,-21,1,100
1033,-21,1,100
512,12,3,910
534,-3,5,925
2831,-14,5,700
722,-20,4,350
297,-6,5,710
NULL,-14,NULL,7150
46,-21,5,150
431,-14,4,3875
821,-30,5,4075
310,-9,5,725
699,-6,5,595
974,8,1,700
1327,-12,1,250
1327,-12,1,250
729,-19,5,300
545,-21,5,180
426,-5,5,800
872,-16,5,2200
600,-24,5,500
15,-27,5,100
18,-2,5,150
520,-21,4,250
732,-14,5,9000
38,-10,4,10050
160,-6,2,317
30,-18,5,1700
113,-15,4,16000
152,-7,4,550
32,-13,5,250
655,-14,5,950
305,-6,4,300
311,-3,5,500
604,-8,5,19200
24,-10,5,150
16,-11,5,7474
934,-16,4,1450
882,-4,2,490
773,-20,5,200
426,-16,5,650
339,-19,3,150
17,-10,2,200
510,-9,5,1300
554,-9,3,800
1607,24,1,150
796,-34,4,350
22,-7,5,1000
5,-10,5,540
20,-2,3,250
592,-15,5,650
358,-14,5,250
1395,11,1,325
166,-21,5,3500
727,74,1,350
912,-9,5,250
880,-11,5,1250
880,-11,5,1250
490,-10,5,1833
403,-14,5,275
NULL,-8,NULL,400
482,5,3,550
482,5,3,550
355,-13,5,300
23,-9,5,675
511,-14,5,3250
281,0,4,12250
1258,0,3,900
1369,-13,4,200
1369,-13,4,200
2372,-10,5,900
2051,-12,5,1700
296,-14,5,416
710,-25,5,9050
357,41,4,1100
966,-2,3,400
1920,-12,4,400
602,-14,1,600
352,-16,5,2850
714,-12,5,483
472,-25,5,150
154,-13,5,200
154,-13,5,200
333,-21,5,150
863,-15,5,550
365,-25,5,450
1447,-13,4,575
349,-11,4,8683
389,-16,1,350
718,-8,5,950
418,-24,4,117
499,-16,1,340
249,-15,5,800
137,-7,5,300
386,-11,5,1500
2689,-18,4,250
1530,-29,4,350
308,-7,5,1350
736,-9,1,303
466,-20,5,550
162,-3,4,450
162,-3,4,450
162,-3,4,450
162,-3,4,450
947,-14,5,1825
47,-25,5,500
367,-21,3,1450
414,-8,4,8350
851,0,5,800
851,-19,5,800
388,-14,5,6500
808,-14,4,2750
730,-18,5,7750
594,-14,3,850
594,-14,3,850
594,-14,3,850
791,-8,5,133
2223,-22,5,800
377,-3,5,150
377,-3,5,150
377,-3,5,150
168,-12,5,1950
77,-7,5,350
808,-10,5,300
663,-25,1,180
809,-14,5,350
1009,-20,5,300
1009,-20,5,300
138,-13,3,100
402,-1,5,250
443,-9,5,4300
660,-10,5,1867
723,-24,5,900
42,-31,5,400
507,-15,5,4600
507,-15,5,4600
34,-3,4,500
597,-14,5,1400
27,-16,5,500
108,7,1,200
580,-33,5,1825
43,-11,5,2200
942,-9,5,3100
1025,-7,5,23800
1021,-4,4,10100
21,-12,5,11900
1338,-9,5,1500
4,-14,5,400
417,-21,5,300
48,-5,5,400
2346,-18,5,233
2346,-18,5,233
2346,-18,5,233
2346,-18,5,233
410,-13,5,1700
732,-11,5,550
2320,-20,4,350
320,-5,3,100
22,-10,5,11325
577,-6,1,1500
577,-6,1,1500
404,-14,4,5100
416,-32,4,225
610,-17,5,225
497,-1,4,325
419,-21,3,900
1047,-2,5,14150
321,-21,4,850
1886,-24,2,640
732,3,1,26000
548,-1,1,500
548,-1,1,500
321,-12,5,30000
367,-12,5,1500
679,-6,2,700
375,-18,4,450
375,-18,4,450
84,-12,4,100
558,-26,3,371
1011,-26,3,371
558,-26,3,350
1011,-26,3,350
76,-9,5,473
736,-6,5,100
279,5,4,1000
197,3,1,14050
222,-14,2,2100
488,-13,5,300
285,-7,5,1050
1339,-21,5,200
2,-9,5,19500
1114,-14,5,400
934,-14,5,900
545,-20,1,200
2109,-2,5,333
705,-10,5,488
435,-15,1,950
435,-15,1,950
521,-9,2,584
86,-8,5,350
542,-14,2,750
374,7,2,150
355,-31,5,1625
487,-13,5,150
940,-20,5,200
588,-12,4,2416
1474,-13,5,250
337,-8,4,200
189,-8,5,2500
66,-3,5,150
66,-3,5,100
483,-15,5,1750
3,-11,5,1850
3,-11,5,1850
4,-11,4,1800
795,-11,4,350
609,-18,1,250
NULL,8,NULL,1250
308,-1,5,3675
2357,-31,5,450
218,-15,4,600
218,-15,4,600
218,-15,4,700
860,-20,5,1550
860,-20,5,1550
801,-12,5,100
1210,-20,4,1400
101,-7,3,750
1054,-22,5,100
12,-6,3,1900
679,-13,5,640
83,-21,5,900
216,-14,5,1000
596,-16,5,8600
510,-16,5,200
301,-4,4,1250
301,-4,4,1250
301,-4,5,1250
301,-4,5,1250
384,10,1,75
431,-20,1,1150
80,-6,4,900
18,-5,5,600
186,-28,3,400
417,-12,5,100
22,-5,5,525
NULL,-6,NULL,1250
17,-5,5,30000
48,-12,5,10025
2109,13,1,688
417,-11,5,2800
338,-15,4,200
221,-14,5,1625
152,-6,5,2425
1169,15,3,6450
1169,15,3,6450
1169,15,1,6450
1169,15,1,6450
1731,-27,5,128
6,-13,5,20450
8,-13,5,20450
6,-13,5,13250
8,-13,5,13250
6,-13,5,20800
8,-13,5,20800
447,-12,4,16650
589,-9,5,650
312,-9,5,850
358,-17,2,2100
246,-1,4,7000
246,-1,4,3750
377,-15,4,10800
781,-21,5,2083
11,-9,5,175
13,-7,5,75
124,-13,1,450
23,-7,5,1280
NULL,-4,NULL,400
539,-20,5,9560
752,-25,5,9100
892,5,1,180
533,-38,5,308
383,15,1,317
133,-11,5,6250
1343,-10,4,150
1343,-10,4,150
442,-19,2,2950
442,-19,2,3400
442,-19,2,1500
442,-19,2,2600
199,-15,5,2033
938,-17,5,1350
623,-14,4,50
490,-13,5,800
246,0,5,5950
728,-17,5,533
742,4,1,5475
5,1,4,250
2079,13,1,7463
173,-14,5,4400
340,-14,5,500
340,-14,5,500
548,-14,4,1450
567,-14,5,875
567,-14,5,875
11,-10,1,200
20,-8,4,300
2354,-9,4,13350
2354,-9,4,13350
863,-35,5,150
27,-5,5,450
921,-16,5,150
345,-10,5,750
206,-11,4,444
112,-5,5,250
1490,-9,1,1550
1490,-9,1,1550
11,-12,5,5600
11,-12,5,5600
173,-7,4,100
1148,-10,5,400
899,-17,5,700
836,14,1,1867
1523,-19,4,2500
24,-7,4,1600
499,-1,4,200
170,-5,5,850
501,-9,4,1100
830,-14,5,1300
689,-39,5,3650
1568,-16,3,200
1568,-16,3,200
24,-14,5,1160
16,-2,5,1800
299,-14,5,1825
63,-16,5,569
492,-11,5,1250
427,-17,4,150
2144,-27,5,200
16,-8,5,200
719,-3,3,1132
459,-12,5,500
493,-5,5,7000
1568,-15,4,5700
347,-25,1,7600
NULL,-12,NULL,150
1162,-23,4,200
634,-7,5,350
374,-17,5,300
1464,-2,5,1950
74,-10,5,163
475,-10,5,1150
2010,-19,5,2500
137,-19,4,5550
585,-8,3,180
697,-3,5,233
14,-19,3,6400
875,11,1,950
347,-10,5,5950
35,-15,5,541
470,-20,5,1300
470,-20,5,1650
2355,-15,4,450
5,-12,5,550
119,-26,5,450
996,-21,4,1032
850,-20,3,1200
690,-17,5,1150
11,-10,3,50
798,-17,5,200
798,-17,5,200
373,1,3,547
67,-17,5,300
532,-31,3,1588
787,-31,3,1588
532,-31,3,765
787,-31,3,765
435,-5,2,450
350,-12,4,675
7,-27,5,100
967,21,1,550
544,-10,5,400
309,-4,3,700
144,-10,4,2444
490,-14,5,100
1217,-14,5,1067
1217,-14,5,1067
16,-10,5,4475
356,-17,5,200
424,-17,5,200
356,-17,5,180
424,-17,5,180
751,-15,4,450
1185,-26,5,850
1185,-26,5,850
1185,-26,5,850
1185,-26,5,850
603,-21,5,6750
30,-11,4,1200
352,-36,5,150
378,-10,4,1400
388,-12,2,400
161,-14,5,480
161,-14,5,480
864,10,1,150
296,-5,4,1813
1105,-23,5,300
19,-9,1,300
685,-11,2,119
825,-15,5,900
51,-13,5,250
30,-14,5,6400
30,-14,5,7150
294,-2,4,100
250,-12,5,15350
1798,-18,5,6550
14,-20,5,200
52,-14,4,15742
791,-21,5,100
32,-12,3,700
882,-9,4,200
8,-4,5,200
144,-14,5,700
2039,-22,1,448
133,-12,4,350
531,-12,5,2800
2153,-31,2,88
996,-20,3,1300
590,-9,1,200
94,-9,5,300
692,-8,5,5200
132,-18,5,750
9,-14,5,2900
NULL,-13,NULL,200
20,-27,5,150
566,-8,4,6150
39,-6,4,1200
1130,-6,5,467
55,-16,3,1200
437,-17,5,2600
437,-17,5,2600
594,-13,5,1600
102,-7,4,14150
151,-10,5,300
791,-23,5,400
2388,31,1,100
601,-33,5,600
32,-9,5,100
133,-13,3,150
652,-43,5,900
901,-20,5,2600
794,-14,5,150
44,-7,4,200
369,-15,5,7000
431,-17,3,6850
707,-10,4,450
690,-3,3,342
206,-15,5,10050
384,-14,5,350
935,-20,5,250
570,-21,3,5300
627,-21,3,5300
570,-21,3,2500
627,-21,3,2500
28,-17,5,150
28,-17,5,150
28,-17,5,150
28,-17,5,150
616,-13,5,1013
616,-13,5,1013
775,-21,2,600
91,-7,5,680
11,-12,5,400
11,-12,5,400
39,-9,5,250
39,-9,5,250
977,-12,5,1750
977,-12,5,1600
815,-16,4,150
506,0,4,2600
2168,-9,1,150
1009,-18,5,4050
695,-19,5,1650
142,-5,3,250
142,-5,3,50
7,-7,5,4450
760,-5,5,129
1726,-9,5,4900
707,-7,3,200
573,-9,1,400
208,-11,5,5750
69,-7,5,100
69,-7,5,100
361,-10,5,5600
411,-24,5,500
88,-11,5,530
108,-13,5,2100
603,-6,2,50
603,-6,2,50
476,-5,5,150
765,-24,2,550
2597,-14,5,100
1477,-21,5,1250
343,-17,5,2850
1069,-15,5,2275
900,-23,5,11800
900,-23,5,11800
1860,-21,5,4650
178,-12,5,1450
353,-22,4,88
82,-4,5,150
NULL,-12,NULL,1250
2093,-8,5,600
28,-22,1,3750
296,-12,5,1450
922,-6,5,135
798,-33,4,13450
1032,-19,5,3000
1289,-11,5,1033
300,-11,4,1400
6,-15,5,250
73,-7,5,1110
78,-9,5,280
1113,-9,5,1700
106,-11,2,238
151,-17,5,16100
671,-12,3,900
631,-14,1,500
631,-14,1,500
500,-11,5,346
644,-13,4,550
1472,-8,4,1825
2356,23,1,6950
1010,-14,5,250
2179,10,1,1925
80,-8,5,700
1144,-13,4,546
1144,-13,4,546
1144,-13,4,546
1885,-15,4,750
323,-24,3,10900
1169,-17,3,14925
522,-6,5,450
89,-9,5,330
1,-20,1,75
875,11,1,1300
870,-13,5,150
44,-9,4,1750
857,-25,4,1050
242,-27,5,12300
1651,-56,5,13050
51,-15,4,3600
6,9,5,200
174,-14,5,3850
840,-11,5,400
874,-13,5,100
582,-14,5,180
33,-7,5,50
194,-9,5,6550
386,-12,5,700
65,-8,5,1700
75,-14,5,1700
2348,-21,4,300
1653,-5,5,250
1816,-14,5,5417
163,-13,5,200
866,6,2,400
686,9,1,900
210,-4,5,1550
382,-19,3,363
67,-6,5,1050
67,-6,5,1050
56,-14,5,6550
2379,-21,4,10550
332,-13,5,800
902,-11,5,280
515,-13,4,712
378,-17,5,3300
443,-19,1,350
794,-19,1,350
443,-19,1,125
794,-19,1,125
151,-8,5,450
682,-15,5,12250
2202,22,1,4850
1338,-18,5,17400
259,-9,5,700
1241,-21,5,16250
85,-9,4,700
526,-20,5,600
1929,-23,5,700
998,-24,5,750
9,-9,5,250
244,-20,5,250
618,-15,5,500
1851,-16,4,169
967,-21,1,750
22,0,5,5250
304,-15,3,1700
1033,1,2,725
43,-18,5,3900
521,-4,5,1250
596,-1,2,200
NULL,-15,NULL,1383
6,-13,5,250
56,-9,2,180
68,-11,5,16300
479,-19,5,100
437,-16,5,1200
824,-8,3,625
137,-11,5,400
498,-37,4,200
1747,-14,5,700
21,-9,5,1200
171,-6,3,200
252,-9,5,350
444,-18,4,300
444,-18,4,300
444,-18,5,300
444,-18,5,300
979,-21,5,210
406,-22,4,200
406,-22,4,200
324,-20,5,102
380,-7,5,5950
76,-25,5,1350
851,-10,1,30000
997,-7,4,2350
898,-12,5,1038
902,-12,5,150
581,-8,1,900
6,-7,5,300
6,-7,5,300
415,-14,4,450
415,-14,4,450
38,-9,5,887
682,-14,5,2050
682,-14,5,2050
682,-14,5,2050
682,-14,5,2050
682,-14,5,2050
31,-13,4,8550
975,5,5,1965
824,-21,5,9750
476,-7,5,250
548,-9,5,4550
80,-6,5,1110
458,-13,5,1350
418,-18,1,1050
491,-18,1,1050
418,-18,1,850
491,-18,1,850
925,-19,3,300
397,-14,1,267
91,-1,4,1350
91,-1,4,1350
334,-5,5,133
30,-10,5,9400
57,-8,4,180
506,-28,3,438
344,-8,5,1100
1115,-14,4,150
970,-6,4,5800
125,-8,5,550
251,-14,1,150
251,-14,1,150
431,8,1,20450
2339,-12,5,850
233,-14,3,1250
358,-14,3,1250
233,-14,3,1200
358,-14,3,1200
707,17,1,1650
454,-13,4,800
62,-12,5,1000
2251,31,1,1136
494,-14,5,1038
415,-18,5,300
974,-7,5,1250
504,-8,5,300
96,-13,5,350
473,9,2,313
284,-13,5,550
602,-16,5,2900
1102,-12,5,3000
595,-7,3,1975
220,-33,5,275
150,-18,2,16650
150,-18,2,16650
150,-18,2,16650
15,-14,5,900
15,-14,5,900
51,-16,4,175
494,-11,5,1150
175,-6,5,500
958,-9,5,1277
4,-8,1,250
935,13,1,550
935,13,1,550
583,-16,5,800
293,-8,5,450
301,-15,5,1383
301,-15,5,1383
1889,-7,4,1750
1087,-17,3,250
357,-13,4,838
845,-26,5,125
1351,-27,4,1550
641,-12,5,9400
2020,-15,5,700
748,-7,5,150
194,17,1,800
440,-19,5,525
1444,-3,4,250
294,-6,5,1300
545,-15,5,300
392,-10,4,1550
29,-18,5,200
775,-14,5,2450
1020,-13,5,1650
34,-8,5,150
364,-6,4,8600
982,-18,5,5300
982,-18,5,5300
1798,15,1,1300
707,-5,5,100
89,-22,4,400
1392,-27,1,88
1392,-27,1,88
8,-16,2,472
418,-16,2,472
8,-16,2,550
418,-16,2,550
829,-13,4,6900
492,-9,5,150
67,-8,5,1300
362,-2,5,50
1435,-7,5,6750
895,-17,4,150
172,-13,5,2700
441,-7,4,2450
29,-6,1,3575
NULL,-13,NULL,7400
383,14,1,200
422,-13,5,1850
1216,-11,5,10100
915,-7,5,450
912,-17,5,150
587,-14,5,800
322,-13,5,13500
55,-11,1,4650
582,1,1,450
704,-15,5,1500
5,-1,5,500
230,-16,4,850
230,-16,4,850
404,-20,5,530
1516,-16,5,8683
915,-18,4,200
898,-16,5,1300
898,-16,5,1300
837,-21,5,100
91,-8,3,400
129,-7,5,3600
342,-7,4,783
487,-4,5,538
806,-9,5,2300
148,-14,5,1300
194,-13,5,800
194,-13,5,800
154,-18,5,250
365,-6,3,150
127,-6,3,350
314,-14,5,150
335,-3,5,150
335,-3,5,150
1125,-8,5,4867
814,-8,5,150
368,-14,5,750
715,-15,5,700
418,-10,5,700
362,-11,4,1500
109,-3,5,450
121,-13,5,950
4,-17,5,2600
627,-20,4,700
NULL,-13,NULL,250
244,-9,1,10100
370,-14,4,5950
396,-29,5,100
880,-9,5,200
18,-10,5,550
128,-18,5,1150
370,-13,5,558
22,-7,5,154
2377,41,1,400
717,-24,3,950
794,-6,2,280
365,-3,4,1200
26,-9,5,1400
413,-17,5,1291
321,-8,4,6700
671,-19,5,450
445,-26,5,250
1966,-36,5,1050
131,-13,5,1400
186,-8,5,350
367,-8,5,11450
1544,-10,5,600
371,-14,5,1450
47,-10,5,150
573,-6,5,1550
573,-6,5,1550
505,-9,4,100
504,-3,5,400
691,-14,4,300
2369,-20,4,375
355,-2,5,250
10,-13,1,650
4,-7,5,150
1095,-23,5,575
809,-12,5,1663
663,-23,5,600
361,-17,5,1275
53,-14,4,8267
161,-12,4,300
25,-33,5,2900
450,-17,5,300
47,-12,4,450
853,-14,5,350
341,-9,5,950
138,-10,5,200
2305,-12,5,750
296,-20,3,900
983,-21,5,1450
81,-10,5,553
471,-15,5,2200
180,-7,5,150
1354,-31,3,250
13,-6,5,950
84,-7,5,200
2091,-38,5,3700
648,-13,4,4150
977,-15,3,800
977,-15,3,800
977,-15,3,800
566,-12,5,150
32,-6,5,520
10,-15,3,1950
10,-15,3,1950
364,-15,5,1100
312,7,4,2726
312,7,4,2726
519,-9,4,700
483,-18,5,400
549,-35,5,3475
107,-13,4,800
NULL,-13,NULL,5200
24,-6,5,257
117,-15,4,150
758,-1,2,363
2337,-9,3,2900
340,-16,5,100
302,-14,5,1750
583,-13,5,133
2363,-20,5,150
545,-13,5,450
303,-16,5,6150
730,-28,5,767
431,-1,5,1550
144,-10,4,1250
20,-13,5,1467
13,-3,5,547
2049,-17,5,1100
312,28,1,9750
312,28,1,9750
668,-24,5,396
17,-9,5,1850
371,-13,5,1400
371,-13,5,1400
371,-13,4,1400
371,-13,4,1400
16,-9,5,500
1263,-26,3,553
1353,-26,3,553
1263,-26,3,426
1353,-26,3,426
270,-17,5,2600
852,-21,2,3150
1105,-6,4,150
310,-15,5,1032
487,-19,5,300
476,-19,5,300
487,-19,5,367
476,-19,5,367
297,-16,1,6663
1454,1,5,200
157,-10,1,484
157,-10,1,484
157,-10,1,484
321,-14,3,200
751,-12,5,650
751,-12,5,650
17,-2,2,450
328,-27,5,7400
88,-5,5,7500
409,-7,5,1700
492,0,2,1050
2342,0,1,1300
2342,0,1,1300
490,-8,5,712
NULL,-33,NULL,2079
NULL,-33,NULL,2079
32,-11,5,500
462,-50,1,100
339,-4,4,150
255,-13,5,850
255,-13,5,850
255,-13,5,850
NULL,-10,NULL,450
678,-26,5,250
1317,-17,3,250
2383,-17,5,250
1931,-1,4,1850
25,-12,3,950
530,-15,5,200
91,-10,5,1250
1239,9,3,408
132,-9,3,1200
1194,-9,5,150
128,-6,4,1400
147,-13,2,728
1699,-19,5,450
119,-16,3,1550
15,-16,5,200
52,-14,5,6150
134,-23,1,150
563,-15,4,250
462,-10,5,50
394,-6,5,400
1162,-14,4,150
53,-4,5,367
310,-17,5,418
18,0,5,1038
55,9,1,900
323,-13,3,1550
NULL,-15,NULL,200
339,-13,5,400
1657,-15,5,5000
767,-15,5,1375
23,-6,4,600
159,-4,4,250
871,-8,5,200
176,-7,1,125
176,-7,1,75
667,-5,5,1550
832,-26,3,2800
95,-8,5,2300
326,-11,5,750
446,-10,5,30000
320,-10,5,250
223,-6,5,308
83,-4,5,1867
514,-9,5,1000
406,-13,4,422
2468,-11,5,50
21,-13,5,2600
21,-13,5,2600
422,-11,5,1500
16,-16,4,400
283,-17,4,10925
865,-14,5,1067
1475,-12,5,438
406,-7,4,9450
416,-16,5,2500
541,-16,5,2500
416,-16,5,167
541,-16,5,167
99,-8,5,190
1430,-16,5,7400
1501,-14,4,175
502,-15,3,350
704,-17,3,7600
358,-17,5,448
56,-5,5,600
70,-7,5,1600
414,-13,5,1100
968,-14,5,817
968,-14,5,817
326,11,1,200
8,-7,4,200
NULL,-14,NULL,3750
492,-15,5,10600
11,-10,1,20450
1345,-23,5,550
359,-22,1,100
351,-22,1,100
359,-22,1,350
351,-22,1,350
725,-14,5,450
507,-23,5,1900
361,16,1,350
2104,-6,4,1500
20,-6,1,300
347,-19,2,250
1539,-29,5,250
1539,-29,5,450
63,-14,5,400
342,-12,5,19450
2267,13,1,250
520,-19,3,575
873,-16,5,2400
873,-16,5,1150
366,-15,4,250
414,-8,5,6050
454,-4,3,1000
89,-14,4,400
13,-14,5,750
13,-14,5,750
973,-8,5,150
438,-6,1,567
461,-12,5,1350
99,-22,4,175
119,-8,5,254
302,-14,3,1100
1100,-22,5,1300
295,-2,3,383
303,-9,3,200
2342,-6,3,200
423,-7,5,600
539,-11,5,350
321,-5,5,1750
29,4,1,14950
118,-19,4,250
118,-19,4,250
118,-19,4,250
118,-19,4,250
202,-9,1,800
202,-9,1,800
202,-9,1,800
202,-9,1,800
202,-9,1,800
576,-21,5,1850
576,-21,5,1850
351,-13,5,2380
351,-13,5,2380
55,-8,5,5250
39,-3,5,16450
796,-20,5,150
422,-18,5,1350
422,-18,5,450
104,0,4,1800
33,-5,1,400
33,-5,1,400
2717,-16,5,525
NULL,-10,NULL,800
11,-6,3,700
868,-25,5,1400
82,-8,5,1600
487,-23,3,150
2135,-15,4,533
45,-7,4,500
103,-22,5,275
2,-13,5,950
339,-13,4,100
64,-4,4,250
535,-15,1,396
535,-15,1,396
501,-12,5,975
810,-21,5,12275
14,-5,5,150
478,-2,3,4105
531,-19,5,600
2415,-44,5,150
478,-6,5,1000
228,-15,2,1350
65,-11,1,2500
60,-29,5,50
133,-1,5,16050
851,-6,5,30000
783,-15,5,1050
6,-7,5,1200
8,-10,5,250
626,-10,5,250
10,-4,3,450
837,-14,2,317
299,-23,4,600
299,-23,4,600
723,-15,2,850
140,-14,1,900
140,-14,1,950
1351,-21,4,100
517,-2,5,1500
171,-15,2,207
171,-15,2,207
2102,-26,4,4100
2102,-26,4,4100
1079,-2,3,350
125,-12,4,556
73,-7,5,156
93,-13,3,154
705,-8,1,140
25,-15,5,900
968,-27,4,1625
809,-28,5,500
139,-23,5,1000
838,-15,5,250
303,-10,5,100
303,-5,5,350
149,-7,3,150
149,-7,3,150
2143,-45,5,30000
2506,-19,5,100
65,-14,4,600
44,-12,5,200
350,19,1,525
311,-11,1,850
1398,-8,5,950
221,-9,5,1383
121,-11,4,3200
381,-19,5,13450
441,21,2,200
579,-8,2,2250
270,-13,5,400
552,-14,5,650
121,-12,5,850
121,-12,5,850
2182,-12,5,444
572,-22,5,200
1388,-14,4,1400
1388,-14,4,1400
894,-27,1,1000
881,-27,1,1000
894,-27,1,450
881,-27,1,450
343,-14,4,550
843,-21,3,11467
11,-13,5,450
698,-18,5,100
327,-13,5,750
482,-13,5,850
574,-14,4,6200
994,-27,5,1650
544,-10,5,150
57,-8,5,300
42,-4,5,6500
857,-12,5,2600
440,-22,5,450
440,-22,5,450
411,-19,5,1650
493,-5,4,50
31,-18,5,13388
2109,-15,4,7000
309,-16,4,750
670,14,3,1800
450,-18,5,175
512,-17,5,850
512,-17,5,850
490,-10,4,350
25,-16,5,1813
25,-16,5,1813
154,-10,4,765
364,-7,4,4175
51,-7,5,750
1761,-11,5,4765
1158,-15,4,3121
2340,-9,4,1850
23,-11,5,200
13,-5,2,100
350,-17,5,1100
82,-15,5,6050
2121,-6,5,350
418,-18,4,4375
685,-9,4,200
1489,-11,5,1050
895,-13,4,175
1530,-12,4,600
1530,-12,4,600
NULL,-20,NULL,100
215,-14,4,6550
2351,-10,3,200
536,-22,5,180
536,-22,5,180
401,-10,1,150
764,-27,5,880
136,-8,3,550
1255,-16,5,4350
350,-14,5,175
2297,-7,4,900
209,-20,5,273
500,-18,1,550
269,-6,5,400
2382,-6,5,1050
170,-14,5,650
5,-14,1,2035
5,-14,1,1252
761,-8,5,83
951,-21,5,100
12,-7,5,50
121,5,1,12750
295,-20,5,6550
295,-20,5,6550
431,-12,4,1650
101,-10,5,1500
448,-16,5,150
18,-8,4,2033
1362,-7,4,2500
727,-9,5,5400
243,-20,1,200
467,-15,4,1800
806,-10,5,800
46,-10,5,823
403,-11,5,450
403,-11,5,450
403,-11,5,450
417,-3,4,1550
364,-28,4,350
21,0,5,100
514,1,3,200
824,-11,5,950
83,-15,5,250
353,-12,4,300
140,-7,5,1600
99,-10,5,150
337,-13,5,350
139,-22,1,2900
162,-3,5,350
134,-8,4,1350
2358,-23,3,300
359,-11,5,2850
2140,123,1,600
857,-27,5,1775
59,-2,5,200
6,-7,1,150
480,5,1,975
297,-4,5,1550
792,-15,5,5800
403,-16,5,450
295,-19,5,1029
1099,-22,5,350
2735,-31,5,300
131,-13,3,1200
937,-30,5,1650
153,-4,5,350
154,-12,5,300
478,-8,5,7350
877,-14,5,100
355,-19,5,3585
750,4,2,300
340,-11,4,950
340,-11,4,950
340,-11,4,950
355,3,3,200
363,-7,4,200
353,-17,4,700
747,-18,5,217
24,-10,5,1100
46,-9,5,2125
160,-7,5,5050
742,-20,5,550
173,-18,5,625
1088,-14,4,1500
420,-18,5,910
295,-19,5,750
536,-16,1,9650
536,-16,1,10725
694,-21,5,11880
694,-21,5,11880
1217,-9,5,427
321,-12,5,417
NULL,0,NULL,300
9,-13,4,300
395,-5,3,7850
852,-16,3,3150
1234,-4,5,700
872,-27,4,1600
63,0,4,800
1183,-27,4,450
24,-10,5,400
300,-7,5,150
49,-10,5,1100
2699,-38,5,3400
43,-17,5,1433
378,-18,5,6000
1894,-8,4,350
93,-19,5,600
556,-15,4,7500
660,-9,3,700
542,-21,1,6400
98,-6,5,250
175,-15,5,6200
1104,-7,4,900
157,-9,5,200
310,-13,4,350
2379,-20,4,300
500,-20,5,4475
500,-20,5,1200
336,-18,4,500
1447,0,3,700
1447,0,3,700
108,-15,5,1200
714,0,3,2750
549,-12,5,350
1390,-4,5,314
26,-11,5,200
26,-11,5,200
134,-12,3,450
134,-12,3,500
613,-22,5,2300
6,-6,5,250
6,-6,5,250
28,-13,4,8450
1091,3,5,2197
804,-35,5,225
544,-22,5,214
544,-22,5,214
2096,-16,4,1050
43,-6,4,150
474,-23,5,10050
8,-12,5,200
1173,-10,5,150
109,-13,4,200
109,-13,4,250
109,-13,4,250
420,-8,5,200
420,-8,5,200
426,-8,4,1550
1232,-24,4,400
398,-11,5,800
553,-11,4,1000
553,-11,4,1100
27,-17,2,800
332,-7,4,750
87,-10,4,175
934,7,1,200
934,7,1,200
834,-24,5,250
834,-24,5,250
834,-24,5,250
834,-24,5,250
514,-16,5,407
391,-13,5,1600
259,-5,5,100
191,-9,4,6050
408,-4,3,200
138,0,1,11850
480,-15,5,400
337,-20,5,700
114,-6,5,190
249,-14,5,4000
608,-15,3,950
1875,-10,5,24050
882,-16,5,1250
961,-16,4,925
139,14,5,12100
1116,-5,5,8200
20,-1,5,220
2062,-35,5,200
1941,14,1,431
506,-5,5,173
43,-7,3,850
13,-10,5,350
876,1,5,450
476,-14,3,75
476,-14,3,150
382,-6,4,17900
298,-6,5,23450
298,-6,5,23450
453,-8,5,350
1026,-14,4,425
406,-4,5,550
488,-28,4,346
2294,-18,5,835
2294,-18,5,835
985,-9,5,1750
119,-5,5,1200
252,-18,4,4100
715,-18,4,4100
252,-18,4,700
715,-18,4,700
252,-18,4,600
715,-18,4,600
2220,-18,5,1150
2220,-18,5,1150
2220,-18,5,1150
624,-12,5,233
2113,2,4,550
197,-15,5,125
1088,-15,2,8350
357,-5,4,550
66,-7,5,400
1429,-31,3,850
687,-9,5,2400
360,-14,5,700
485,-17,4,1200
76,-11,5,650
42,-23,5,15000
91,-14,5,250
346,-8,5,115
408,-4,5,1650
408,-4,5,1650
260,-20,3,1400
260,-20,3,1400
14,-9,5,375
544,-22,5,900
544,-22,5,900
544,-22,5,900
19,-16,2,50
19,-16,2,50
934,-28,4,450
313,-16,5,150
498,-15,5,200
360,-14,1,7513
843,-4,5,6500
35,-14,5,1000
712,-8,1,147
496,-17,5,400
331,-23,5,4300
498,-4,4,3150
498,-4,4,3150
327,-8,5,450
550,-10,5,1750
638,-14,4,3100
58,-6,2,120
1863,2,3,100
1064,-7,5,800
798,-26,5,350
184,-6,4,333
11,-11,5,1525
468,-16,5,625
80,-9,5,100
1990,-15,5,350
391,-4,4,1000
290,-19,5,350
596,-9,5,2550
835,-18,1,400
363,-23,5,6800
644,-5,4,700
11,-5,4,820
683,-15,5,1750
2284,-5,4,700
304,-15,4,250
304,-15,4,250
427,-8,4,1300
623,-13,5,1250
461,-21,5,12600
306,-8,5,800
360,-18,5,2600
397,-15,5,452
13,-1,5,150
749,-9,5,300
749,-9,5,300
84,-13,4,2400
1623,-23,2,200
325,-21,5,1700
656,-4,3,100
1436,-12,2,1700
1641,-14,5,300
12,-2,5,1450
2,-17,4,900
58,-13,5,966
535,1,5,4338
192,-8,5,10000
81,-14,5,150
296,-16,5,342
2047,-36,5,4950
146,5,1,150
2190,-9,3,1450
54,-13,5,300
930,-13,5,167
491,-10,5,1000
622,-15,5,300
438,-19,5,17500
169,-19,5,17500
438,-19,5,21400
169,-19,5,21400
490,-20,4,600
336,-16,4,200
53,-5,5,4300
1299,-15,4,1250
90,-8,3,321
480,-19,4,5500
348,-6,4,6038
242,-16,5,3850
900,-21,4,2500
699,-6,3,1383
514,-16,4,1093
22,-1,3,1300
621,-12,5,900
790,-13,5,150
1276,-20,5,450
14,-9,5,300
412,-12,3,8100
343,-14,5,250
950,-13,3,1825
438,-3,1,300
858,-24,4,100
346,-19,5,1563
2177,-20,1,760
2177,-20,1,760
2177,-20,1,760
2177,-20,1,760
2177,-20,1,760
816,-9,4,950
58,-18,5,166
549,4,2,7750
622,-21,5,200
563,-19,5,4550
302,-7,5,300
67,-16,4,875
410,-8,1,173
414,-18,5,1500
1470,0,4,100
510,-7,3,600
79,-14,4,800
20,-10,5,300
317,-16,5,4250
2036,-14,5,1900
545,-8,5,2450
353,-4,2,300
17,-7,3,150
1417,7,3,1288
142,-14,5,100
72,-11,5,2500
886,-5,5,2200
353,-20,5,6150
67,-9,5,450
67,-9,5,450
18,-14,5,300
796,-2,5,750
49,-10,5,240
519,-8,4,107
411,-7,5,550
331,-3,5,200
485,-15,5,700
488,4,2,100
100,-7,4,317
NULL,52,NULL,9000
2349,-27,4,275
12,-11,5,750
390,-13,5,300
161,-12,4,300
495,-23,5,350
164,-19,1,290
127,-8,5,50
1635,-7,3,650
112,-8,5,700
456,-11,5,1500
12,-6,5,450
730,-10,5,429
730,-10,5,429
390,-5,5,500
294,-18,4,3100
2317,-14,3,138
453,-3,4,1400
295,-6,4,4338
793,-15,5,2800
1117,-15,5,1250
143,-10,2,2800
471,-9,5,500
300,-9,1,2150
2321,-22,4,200
100,-5,4,4800
679,-25,5,4650
9,-4,5,300
18,-11,5,4475
1800,45,1,1500
2174,-9,4,125
132,-13,5,250
1747,-31,3,250
263,-24,5,700
34,-13,4,6700
34,-13,4,6700
219,-11,5,500
20,-19,5,1800
332,-30,4,100
481,-16,5,1600
727,-15,5,5250
659,-10,5,1300
478,-13,4,18000
NULL,-10,NULL,850
NULL,-10,NULL,850
369,-17,5,467
940,-4,1,167
317,-14,5,950
348,-20,5,950
19,-13,5,1582
760,-23,5,1600
1189,-23,4,700
895,-12,3,50
54,-12,1,350
133,-17,4,2050
2311,-6,4,700
2311,-6,4,700
2311,-6,4,700
2311,-6,4,700
2311,-6,4,700
2311,-6,4,700
2350,-3,5,250
423,-11,5,5200
708,-11,4,2300
330,32,1,1110
52,-22,4,8683
959,-33,4,1800
1334,-28,5,7950
524,-42,5,1400
471,-19,5,7450
1337,-13,5,550
665,-16,5,1383
959,-17,5,50
959,-17,5,50
2228,-19,5,350
18,-13,5,1925
47,-7,5,200
431,-14,5,375
750,-15,5,100
569,10,1,100
539,-17,5,1100
1928,-25,5,250
350,-10,4,2600
843,-26,3,150
890,16,3,350
2149,-15,1,600
2149,-15,1,600
591,-6,5,1200
591,-6,5,1200
9,-14,5,100
129,-14,5,30000
160,-1,4,600
286,-14,4,4338
637,6,1,425
40,-13,5,11113
16,-7,5,950
16,-7,5,950
889,-18,5,150
388,1,2,970
801,-12,5,1900
832,-6,1,150
365,-17,5,8875
867,0,5,450
91,-11,5,3500
491,-9,5,2300
992,-20,5,13700
746,-5,4,175
340,-14,3,100
340,-14,3,100
340,-14,3,100
340,-14,4,100
340,-14,4,100
340,-14,4,100
340,-14,3,100
340,-14,3,100
340,-14,3,100
140,-9,5,8950
345,-6,1,750
345,-6,1,750
345,-6,1,750
345,-6,1,750
483,-8,5,285
343,-11,5,200
930,-21,5,483
2,6,1,317
1446,-13,1,200
959,-13,1,200
1446,-13,1,125
959,-13,1,125
2287,-21,5,700
444,-16,4,4755
797,-12,3,314
67,-26,4,7350
215,-3,3,600
215,-3,3,600
215,-3,3,600
215,-3,3,600
215,-3,3,600
409,-11,5,875
336,-24,5,8800
301,-17,5,710
441,-27,4,15200
167,-13,5,1500
249,-10,5,800
104,-11,4,1950
44,-11,4,100
86,-11,5,2650
1084,-11,4,317
1428,-20,5,401
710,-18,5,700
268,-8,5,1050
NULL,-6,NULL,500
81,-14,4,1000
470,-9,5,400
426,-23,5,1000
178,-18,5,6300
34,-6,5,400
261,-9,4,700
747,-46,5,2700
563,-9,1,200
752,-29,3,13700
343,-15,4,3900
356,-11,5,1750
317,-19,5,300
76,-11,5,150
458,-15,5,1200
458,-15,5,1200
458,-15,5,9550
312,-12,5,30000
12,-4,5,200
12,-4,5,300
48,-5,3,300
435,-13,5,887
433,-19,5,1100
262,-8,5,1100
942,-13,5,250
111,-6,5,300
52,-12,5,400
311,-15,5,475
495,-17,5,1538
762,-12,5,1500
267,1,3,7100
672,5,1,1650
91,-20,5,600
533,-27,5,173
796,-21,5,2500
202,-21,2,3100
82,-21,2,3100
202,-21,2,2750
82,-21,2,2750
202,-21,2,300
82,-21,2,300
433,-7,5,1100
336,-6,3,100
234,-12,5,1700
299,5,1,567
494,-47,5,338
415,-11,5,6000
893,1,4,250
350,-13,3,1450
425,-7,5,600
91,-19,5,1750
422,-6,5,825
552,-26,5,150
842,-11,4,3900
862,-29,1,7900
842,-26,5,950
21,-15,4,225
484,-20,5,150
504,-12,5,7400
333,-9,4,350
34,-1,1,13867
432,-10,5,7433
340,-7,1,156
504,-15,2,550
78,-5,3,200
222,-17,5,1200
376,-21,1,1550
60,-15,5,500
19,-10,4,9900
19,-10,4,3500
182,-11,5,1050
189,-15,5,2300
525,-3,5,100
918,-13,5,1050
353,-20,5,200
16,-12,5,1100
63,-9,3,200
63,-9,3,200
816,-19,5,4600
313,-24,5,1400
209,-12,1,250
345,-6,1,750
345,-6,1,750
345,-6,1,750
345,-6,1,750
532,-19,5,430
2314,-20,5,1625
183,-19,5,23200
77,-17,5,600
470,-8,5,950
459,-20,5,200
2129,-20,5,200
321,7,1,415
2128,-10,5,1500
303,-7,5,700
436,-22,5,950
325,-14,1,18225
501,-14,1,600
346,-6,1,200
1290,-15,4,2400
503,-20,5,1000
55,-10,5,3300
301,-10,5,459
78,-13,4,1600
448,18,1,200
583,-17,5,1600
2186,-15,4,200
30,-21,5,400
2154,-12,5,350
947,-16,4,50
947,-16,4,50
11,-12,5,450
21,-10,5,400
461,-23,5,242
1909,-19,5,610
2363,-10,2,346
377,-14,5,450
2385,-12,4,300
21,-19,5,500
7,-13,5,850
2020,-12,4,250
NULL,-8,NULL,800
NULL,-8,NULL,800
523,-19,5,1100
168,-13,5,1400
81,-8,5,400
425,-7,1,550
641,-14,5,175
817,-9,5,2313
162,-16,4,9950
112,-14,4,450
49,-9,1,567
552,-16,2,1600
157,-11,5,6250
834,-18,5,300
336,-25,5,300
437,-21,5,575
402,-5,5,350
404,-15,5,1500
404,-15,5,1750
1609,-15,5,700
505,-16,5,275
787,-15,5,2600
159,-14,4,584
682,-17,5,9750
2447,-30,5,200
232,-17,5,650
2464,-13,5,1050
658,-27,5,3700
14,-8,4,625
14,-8,4,625
14,-8,4,625
14,-8,4,475
14,-8,4,475
14,-8,4,475
14,-8,4,475
14,-8,4,625
15,-9,5,250
486,-3,1,200
2735,-25,5,1550
23,-12,4,2150
796,-20,5,150
9,-1,5,400
462,-16,5,6250
NULL,-1,NULL,584
319,-12,5,147
344,-7,5,250
752,-12,4,1750
595,-28,5,1100
1203,-28,4,350
277,-14,5,1250
470,-13,3,1050
470,-13,3,1200
338,-12,5,4700
503,-12,4,18250
850,6,1,321
399,-27,5,417
100,-27,5,417
399,-27,5,200
100,-27,5,200
16,-9,4,183
366,-8,5,600
359,-8,4,250
618,0,5,8333
347,-8,5,2550
496,-11,4,5600
487,-6,5,800
487,-6,5,800
487,-6,5,800
487,-6,5,800
1195,-8,4,5150
113,-10,4,300
425,-18,5,1650
191,-6,4,725
1453,-3,3,1500
90,-6,4,4000
18,-8,3,2000
31,-6,5,400
469,-6,5,584
32,-13,4,1400
32,-13,4,2200
77,-11,5,250
493,-15,5,467
42,-8,5,463
304,-7,5,258
223,-15,5,475
506,-4,5,200
365,-3,5,266
365,-3,5,266
365,-3,5,266
74,-15,5,5200
1968,17,1,750
1584,-28,5,1350
1226,-7,4,450
1226,-7,4,450
676,-15,5,200
357,-19,5,2250
84,-23,4,650
449,-15,5,600
757,-12,5,200
757,-12,5,200
345,-19,5,400
95,-19,5,100
452,-18,4,250
526,-18,5,16250
29,-13,5,2134
495,1,5,300
368,-7,3,1250
619,-24,5,900
440,-8,5,150
1077,-14,5,2600
336,-22,4,50
543,-7,3,100
2351,-14,5,700
257,-12,3,1383
257,-12,3,1383
448,11,1,800
2373,-13,5,200
457,-14,5,350
423,-4,1,4750
423,-4,1,4750
1125,-33,1,575
573,-11,5,1600
573,-11,5,1600
573,-11,1,1600
573,-11,1,1600
422,-13,4,4000
176,-8,4,2500
850,-13,4,1300
14,-13,5,6150
726,-6,5,700
726,-6,5,700
70,-10,5,150
174,-10,5,10700
174,-10,5,10700
174,-10,5,10700
1619,-6,5,267
667,-14,4,200
1906,-14,5,7500
113,-11,5,400
2077,-22,5,1700
822,-18,5,16133
511,-18,4,5300
511,-18,4,5300
348,-9,5,150
334,-20,3,250
11,-9,5,22350
327,-14,5,6500
845,-14,5,140
461,-8,5,100
351,-8,5,250
32,-8,5,3875
124,-7,5,12850
463,-7,5,3350
811,-14,3,50
31,0,1,250
811,-21,5,200
497,-12,5,220
359,-22,5,2425
2100,-15,5,2150
1088,-9,5,600
2475,-22,4,150
297,-6,5,2900
861,-15,5,300
176,-43,5,1400
65,-8,5,225
94,-14,1,1250
952,-3,5,1383
911,-15,5,4338
343,-11,5,1350
546,-13,5,300
416,-23,5,350
10,4,5,950
292,-11,5,950
292,-11,5,1050
319,0,5,300
116,-11,5,2150
45,-6,3,11875
423,-10,3,500
129,-15,5,10750
579,-14,4,700
8,-7,1,300
8,-7,1,300
552,-15,5,350
552,-15,5,350
762,-7,3,5150
136,-8,4,600
350,-15,4,10150
270,-1,5,200
357,-7,4,350
866,-17,5,150
413,-8,5,1550
413,-8,5,1550
2477,3,4,1200
276,-11,5,1000
362,-14,5,8100
1622,-20,5,500
869,-20,5,200
24,-9,5,3850
8,-1,5,5000
4,-11,3,1500
393,-13,5,3750
35,-9,5,4950
8,-6,5,300
439,-11,5,2300
373,-21,5,350
256,-13,5,425
503,-11,4,550
503,-11,4,550
503,-11,4,550
503,-11,4,550
683,-8,3,1800
125,-8,5,750
329,-23,5,14450
306,-13,5,800
822,-12,4,3500
356,-15,5,450
1737,-13,5,300
894,-32,1,100
803,-11,4,13350
803,-11,4,13350
803,-11,4,13350
803,-11,4,13350
803,-11,4,13350
1080,-27,1,350
699,-24,5,1150
699,-24,5,1800
340,-14,5,1050
340,-14,5,1050
247,-10,5,10750
787,-13,4,650
604,-15,5,7000
479,-14,3,3400
814,-13,5,3008
651,-13,5,500
2220,-16,4,584
187,-13,4,1750
839,-4,3,2700
449,0,5,1200
189,-22,4,12300
1453,-23,5,369
1074,-18,5,400
8,-9,1,1650
20,-13,5,250
1725,-21,3,600
403,-19,5,1500
104,-4,4,742
42,-11,4,1450
66,-9,4,600
752,1,5,100
1177,-24,4,224
12,-6,5,16850
1107,-18,5,4300
561,-19,5,300
561,-19,5,300
529,-7,5,444
2492,-24,4,250
854,-8,4,200
833,-9,5,4338
305,-8,4,300
13,-11,3,267
430,-7,5,16400
539,-8,4,167
350,-24,5,300
2306,-21,3,1250
773,-1,2,300
773,-1,2,300
557,-12,4,5000
900,-3,5,250
57,-5,5,1550
9,-22,4,3100
604,-16,5,500
604,-16,5,500
1432,-2,5,100
1347,-18,4,50
2295,-21,5,4550
701,-14,5,2638
542,-8,5,1825
950,-33,5,550
950,-33,5,550
950,-33,5,550
319,-12,3,10075
521,-15,1,1167
9,-5,5,6100
194,-1,4,300
297,-14,5,675
119,-14,5,3250
399,-14,5,6250
1095,-28,5,2000
487,-1,5,1383
1966,-14,4,3300
93,-12,5,150
97,-11,4,200
97,-11,4,150
385,-15,5,550
743,-24,5,217
285,-4,5,314
250,18,1,150
286,-13,5,350
1005,-6,1,1575
1221,-14,4,11875
247,-10,5,1825
132,-15,4,500
1082,1,1,475
93,-13,5,250
2314,-17,5,700
356,-27,5,1250
172,-7,4,350
695,-13,1,1050
349,4,5,1600
351,-17,5,6850
22,-8,5,150
1098,-25,4,1950
797,-32,5,11100
1615,8,1,584
251,-10,5,6550
251,-10,5,6550
19,-5,5,750
629,8,1,1550
54,-8,5,875
380,-19,5,750
22,-15,5,250
590,-27,1,900
590,-27,1,350
1722,-19,5,850
640,-14,5,1350
1473,-9,3,300
623,-13,5,650
623,-13,5,650
257,-15,4,282
596,-13,4,375
773,-20,4,150
49,-22,5,150
1485,-28,2,8350
1630,-8,5,250
421,-17,5,750
659,-7,4,100
24,-2,5,150
34,-3,1,250
34,-3,1,200
34,-3,1,200
512,-21,5,4350
365,-22,4,1500
389,-14,5,900
462,-5,3,178
341,-12,5,150
740,-6,5,2100
31,-13,5,838
366,-2,1,150
366,-2,1,150
366,-2,4,150
366,-2,4,150
756,-16,5,283
173,-34,5,2000
141,-19,5,1650
141,-19,5,1650
141,-19,5,1650
141,-19,5,1650
141,-19,5,1650
141,-19,5,1650
141,-19,5,1650
141,-19,5,1650
499,-25,5,5700
201,-12,4,10225
428,-15,5,350
299,-13,3,9625
1339,-20,1,800
2127,-10,5,1050
674,-18,4,2050
886,-15,5,1500
2360,-19,5,150
1082,21,3,600
1451,-12,2,175
1451,-12,2,175
104,-8,5,1383
44,-8,5,4350
530,-16,3,400
1337,-11,5,4317
681,-8,5,200
904,-15,1,128
904,-15,1,129
300,-14,5,1300
485,-11,5,183
2381,-10,5,400
17,-8,4,550
17,-8,4,550
437,-11,5,1550
344,-28,5,350
3111,-29,4,700
252,-2,4,1500
585,-3,4,2700
19,-10,5,500
290,-13,4,584
664,-2,3,250
125,-2,5,100
495,-13,5,800
720,-10,4,600
823,-15,5,550
841,-20,5,500
250,-13,3,667
488,-14,5,1100
332,-3,2,14550
332,-3,2,14550
414,-13,5,850
61,6,1,3500
655,-9,4,157
655,-9,4,157
655,-9,4,157
655,-9,4,157
655,-9,4,157
655,-9,4,157
355,-23,5,1017
78,-20,4,733
42,-5,3,200
399,-28,3,150
NULL,25,NULL,3325
723,-9,5,850
371,-18,4,2600
727,-28,5,1850
96,-14,5,213
50,-12,5,3350
79,-5,4,400
449,-13,5,600
26,-8,1,975
746,-16,4,600
2309,-6,5,600
333,-28,1,683
231,-4,3,3225
NULL,-11,NULL,100
797,-14,3,150
797,-14,3,150
33,-10,3,4350
1061,-19,5,950
573,-13,5,16900
293,-16,5,200
1673,-26,5,700
147,-34,5,567
302,-8,5,50
302,-8,5,50
707,-24,5,1525
885,7,1,150
379,-10,4,6050
832,-18,5,400
312,-21,5,750
851,-16,5,7200
831,-22,3,9750
2120,-18,3,1200
944,-21,5,4825
294,-4,4,1100
816,-21,5,600
2685,5,3,227
NULL,-11,NULL,1250
78,-10,5,460
11,-3,3,600
257,-14,5,1550
960,-11,3,500
960,-11,3,500
381,-7,4,200
790,-26,4,1750
356,-26,4,1750
790,-26,4,5300
356,-26,4,5300
790,-26,4,600
356,-26,4,600
687,-18,5,6050
149,-13,5,3250
476,-14,2,150
20,-8,4,1400
950,-33,5,550
854,-15,4,1750
204,-3,5,30000
1702,-15,1,5200
705,16,4,18150
705,16,4,18150
792,-1,5,10550
112,-7,5,4475
427,5,5,117
314,-8,5,1825
666,-12,5,5250
316,6,1,5400
700,-28,4,300
131,-19,2,250
131,-19,2,250
131,-19,5,250
131,-19,5,250
384,-13,5,335
249,-17,5,2300
301,-12,5,1500
354,-14,4,200
1747,-7,5,200
1086,-20,5,750
666,-5,5,1350
295,-15,5,100
1744,-9,5,4350
155,-14,5,16800
17,-4,5,200
352,-18,5,1250
538,2,1,1350
2133,-17,5,950
313,-17,5,950
2133,-17,5,2150
313,-17,5,2150
304,3,5,1200
619,-21,5,350
619,-21,5,350
769,-3,5,150
781,-21,5,558
NULL,-29,NULL,400
265,14,2,300
20,-14,5,650
554,-25,5,900
802,-7,1,700
18,-7,5,825
1720,-19,4,300
1720,-19,4,300
374,-4,4,5250
453,-14,5,200
119,-10,5,16100
46,-7,5,5650
508,-12,5,750
2255,-14,4,500
2255,-14,4,500
940,-17,5,2550
299,-28,5,300
464,-9,5,175
434,-13,5,300
475,3,1,5675
1514,-15,5,275
104,-16,5,700
895,5,1,3450
348,-20,4,100
371,-25,5,275
339,-6,5,704
159,6,5,10750
479,-17,5,1650
57,-21,3,350
1440,-16,5,500
423,0,5,600
2372,-9,5,600
800,-11,4,100
525,-9,5,1867
498,-23,5,610
498,-23,5,610
982,-10,5,250
578,-15,3,175
570,-15,3,175
578,-15,3,113
570,-15,3,113
528,-10,5,250
892,-11,5,850
849,-22,4,18600
NULL,-14,NULL,900
704,-19,5,1600
929,-16,5,2200
383,-10,5,500
405,-14,5,4338
322,-7,5,300
374,-23,3,335
572,-10,5,8750
1053,7,3,22150
442,-22,1,1975
442,-22,1,1975
469,-26,5,5470
2089,-9,5,150
475,-12,1,4950
922,-35,5,1800
922,-24,4,500
51,0,4,418
114,-14,2,650
157,-14,2,650
114,-14,2,2050
157,-14,2,2050
NULL,-24,NULL,100
333,-22,3,6550
875,-2,4,167
376,-17,3,650
832,-5,5,2600
1086,-16,3,2950
720,-14,5,175
295,-10,4,835
295,-10,4,835
589,-21,5,200
589,-21,5,200
589,-21,5,200
589,-21,5,200
432,-16,5,5950
49,-8,5,1200
145,6,1,3890
81,-15,4,300
376,-4,5,14350
1059,-28,5,1450
1059,-28,5,1450
771,-14,5,4750
156,-9,5,1092
596,-3,2,1825
518,-4,5,3450
896,-7,5,250
281,-11,5,3733
333,-17,5,200
453,-14,5,888
17,-13,4,1050
810,12,1,550
810,12,1,550
189,-14,5,969
29,-5,5,9750
14,-7,5,2750
20,-22,5,750
13,-8,5,214
1086,-16,5,400
822,8,1,442
328,-13,1,1200
328,-13,1,1200
328,-13,1,1600
328,-13,1,1600
175,-18,4,2500
348,-5,5,1600
1212,2,5,350
1189,-25,5,350
343,-23,5,100
975,-14,5,350
152,8,3,1500
1232,-32,5,200
1232,-32,5,200
677,-14,5,6850
16,-7,4,2750
513,-8,1,250
436,-16,5,1800
361,5,1,16100
322,-10,5,2300
8,-17,5,300
8,-17,5,300
72,2,3,667
811,0,5,388
1529,-7,5,1100
2179,-9,5,850
645,-15,5,300
185,-14,4,4475
549,-9,3,950
318,-10,5,300
288,-14,4,1500
739,-10,5,200
739,-10,5,200
643,-13,4,3000
472,-16,1,1000
237,-26,5,600
1248,-17,5,4500
1463,-19,5,550
28,-14,4,1000
NULL,-15,NULL,1250
140,-9,4,129
1467,-8,5,350
346,-15,5,617
1665,1,2,7650
2122,-7,4,200
384,-2,5,6350
10,-14,5,5900
705,-27,3,0
705,-27,3,0
198,-12,5,7650
344,-27,4,11550
694,-1,1,300
243,-13,5,900
653,-15,5,350
653,-15,5,350
653,-15,5,350
653,-15,5,350
780,-18,4,700
858,-16,5,125
242,-8,3,2200
921,-37,1,100
49,-12,3,2825
802,-20,1,2450
1045,-15,1,173
40,-10,5,225
51,-11,5,350
51,-11,5,350
51,-11,5,350
51,-11,5,350
51,-11,5,350
51,-11,5,350
288,-16,4,1350
2472,-14,5,250
2226,-14,3,50
697,-2,3,4850
732,19,5,9900
145,-13,3,200
931,-28,2,1350
875,-11,5,251
309,-17,3,800
773,-3,4,2250
587,-10,5,550
574,-9,4,2150
574,-9,4,2150
819,-15,3,300
594,-16,5,500
766,-14,4,9000
348,-19,1,5850
365,-19,1,5850
348,-19,1,5050
365,-19,1,5050
46,2,1,13650
1246,-13,5,7150
83,-7,5,13450
566,-14,1,750
397,-15,5,200
544,-15,5,400
93,1,5,560
295,-15,5,5950
222,-11,4,400
864,-14,5,250
657,-1,5,496
40,-9,3,950
473,-16,5,400
56,-9,3,6950
403,-13,5,1500
357,-15,5,5700
93,-8,4,750
887,-16,5,100
691,-6,5,6663
162,-18,5,650
68,-5,5,100
750,-21,5,200
77,-16,3,800
289,-30,5,1250
209,-11,5,363
1193,-7,4,700
12,-12,5,490
24,-12,5,490
43,-12,5,490
12,-12,5,575
24,-12,5,575
43,-12,5,575
12,-12,5,1350
24,-12,5,1350
43,-12,5,1350
92,-20,5,750
87,-10,5,1000
1060,-18,5,200
733,-7,1,1150
733,-7,1,1150
257,-11,1,2000
481,-21,5,2250
320,-43,4,1700
109,-8,5,1100
109,-8,5,1100
496,-6,4,2700
1506,-9,5,775
1291,-32,3,0
1291,-32,3,0
20,-7,5,5300
14,-2,5,330
406,-16,5,400
390,-11,5,300
802,-20,5,200
337,-16,5,5400
521,-26,5,449
2066,-16,5,800
295,-22,5,490
360,-14,5,7700
725,-4,5,1000
80,-8,5,1600
129,-8,4,400
836,-11,5,700
12,-13,4,1580
766,-11,3,2900
551,-14,5,2400
343,-19,5,3110
408,-7,5,1750
75,-9,4,415
320,-12,5,517
1799,-11,4,350
359,-12,5,100
352,4,1,400
858,-18,4,750
446,-17,5,7925
21,-9,1,147
40,-14,5,9850
755,-2,4,500
525,-16,5,850
839,-32,3,1900
1177,-24,5,1500
533,-15,4,220
42,-9,4,300
304,-19,5,8750
142,-14,2,200
799,-14,5,4105
533,-28,5,500
419,-7,4,100
667,-16,5,1383
346,-16,3,1300
346,-13,5,115
780,-22,5,1000
474,-12,4,200
64,-12,1,350
1942,-8,2,1100
371,-6,5,6050
877,-14,1,300
402,-15,5,100
2382,0,3,500
512,-15,5,200
777,-20,5,150
339,-11,5,13800
664,-5,2,1850
733,-25,1,2300
733,-25,1,2300
552,-13,5,160
355,-7,4,200
585,35,1,1225
243,-15,4,200
920,-6,2,200
796,-21,5,850
466,-12,5,150
436,-2,5,1200
1300,-5,4,850
707,-23,5,250
838,-23,5,550
1457,-14,5,650
662,-5,4,200
326,-12,5,200
354,-15,5,1800
23,-12,5,1050
616,-1,5,4188
616,-1,5,4188
951,-11,3,500
809,-23,5,3450
494,-16,5,180
489,-16,5,180
494,-16,5,207
489,-16,5,207
857,-3,1,1533
11,-21,3,150
1105,-12,4,1900
448,-29,1,1600
448,-29,1,1600
448,-29,1,1600
703,-20,5,1064
459,-13,3,150
459,-13,3,150
763,-7,5,314
200,-9,1,1825
418,-14,5,900
1670,-23,5,2800
482,-21,4,600
134,-10,5,250
40,-14,5,1500
61,0,5,1400
28,-14,4,153
791,-10,5,5200
791,-10,5,5200
791,-10,5,5200
791,-10,5,5200
477,-16,5,150
12,-8,5,315
507,-15,4,260
253,-7,4,750
81,-12,5,350
250,-14,5,1700
409,-5,4,2250
1655,13,5,7700
507,-49,5,4600
346,-14,5,2200
817,-22,5,5200
316,-11,5,800
1248,-11,5,800
316,-11,5,5750
1248,-11,5,5750
1186,-24,4,8350
338,-14,4,200
1709,-25,5,600
23,-14,1,113
555,-14,1,113
23,-14,1,350
555,-14,1,350
281,-4,5,600
310,-15,5,1000
354,-12,5,350
398,18,4,200
1421,4,1,100
137,-15,4,150
702,-17,4,2950
2557,-17,5,450
2188,23,1,500
30,-1,4,550
25,-6,4,500
301,-18,1,700
301,-18,1,700
755,-16,4,250
113,-8,5,300
2132,-19,5,250
1348,-7,3,650
1348,-7,3,650
468,-13,5,1200
30,-10,3,150
334,-16,5,3100
3,-31,5,150
759,-4,5,8875
134,-13,5,300
326,-27,5,800
741,-17,4,1550
492,-25,3,1900
15,-11,5,250
1439,-21,5,120
466,-14,5,850
79,-9,5,600
4,-5,3,100
4,-5,3,100
19,-10,5,840
1186,-24,5,200
5,-2,5,800
367,-4,5,6750
252,-13,5,2069
489,-12,5,245
334,-13,4,1400
758,-13,4,517
115,-17,5,12250
115,-17,5,12250
115,-17,1,12250
115,-17,1,12250
869,-16,5,600
129,-8,5,275
303,-12,5,26000
521,-20,4,150
521,-20,4,150
683,-8,4,1750
33,-14,4,3500
675,-14,5,3000
675,-14,5,3000
594,-9,4,450
14,-5,5,3300
1689,19,1,250
521,-33,5,584
675,-13,5,900
554,-20,5,475
376,-12,4,9850
611,-20,5,650
249,-17,5,444
387,15,1,431
387,15,1,431
387,15,1,431
387,15,1,431
1485,-8,1,501
1485,-8,1,501
261,8,1,607
516,-7,5,300
746,-15,3,900
484,-12,4,2200
461,-14,4,233
4,-13,5,5950
4,-13,5,7625
342,7,1,700
840,-8,4,4338
NULL,-9,NULL,850
2352,-33,5,350
514,24,1,6663
NULL,-13,NULL,450
2367,0,1,200
2367,0,1,250
9,-2,4,800
43,-7,5,3150
1860,-11,5,1167
634,-9,5,750
323,-13,5,5950
569,7,1,400
340,-17,5,553
140,-19,4,150
303,-17,3,400
303,-17,3,400
303,-17,3,400
794,-12,3,400
829,-12,3,400
794,-12,3,20700
829,-12,3,20700
794,-12,3,1400
829,-12,3,1400
145,-15,3,13900
145,-15,3,13900
137,-8,4,16800
581,-23,5,200
288,-23,5,200
581,-23,5,200
288,-23,5,200
581,-23,5,150
288,-23,5,150
513,-15,3,6650
513,-15,3,6650
513,-15,3,6650
513,-15,3,6650
873,-7,1,600
379,5,1,1600
492,-15,1,5400
492,-15,1,5400
492,-15,3,5400
492,-15,3,5400
664,-8,1,400
664,-8,1,250
800,-8,1,2600
800,-8,1,2600
349,-20,5,1350
349,-20,5,1350
22,-10,1,213
277,-1,5,242
2476,-8,5,350
362,-6,4,13450
811,-15,5,1600
76,-2,3,200
57,-5,1,8809
594,-11,5,10975
1489,-10,5,6550
851,-11,4,2450
437,-7,5,1400
129,-15,5,200
2480,-20,5,400
460,-18,4,1650
742,-28,4,200
1417,-11,4,50
492,-15,5,450
571,-15,3,1650
400,-5,5,900
457,-6,4,30000
863,-13,3,150
957,-20,5,650
526,-10,5,1550
526,-10,5,1550
526,-10,5,1550
526,-10,5,1550
1498,-3,5,150
2484,-13,5,2500
2370,-10,5,350
647,-38,4,533
308,-6,5,6550
600,-5,5,400
535,-14,5,360
202,-10,5,500
488,-15,5,1000
293,-5,3,800
526,-21,5,350
567,-8,5,13050
699,-10,5,1650
465,-12,5,416
405,-13,2,458
420,-1,3,2000
48,-8,4,1025
510,-17,4,6550
2514,-11,5,1000
844,0,5,350
710,-14,3,600
742,-21,5,9000
2478,-8,3,250
353,-4,4,200
348,-13,5,800
47,-11,4,250
1097,-16,3,2050
62,-11,5,293
163,-12,5,700
300,-13,5,243
509,-14,5,1200
336,-14,5,1525
321,-15,5,250
8,-17,5,2800
8,-17,5,14100
705,-15,4,366
28,-1,5,188
645,-22,4,250
1951,-14,3,300
176,-9,5,1300
486,-16,5,242
417,-15,5,2500
139,-5,5,1400
537,-14,5,150
463,-16,3,850
546,-16,3,850
463,-16,3,733
546,-16,3,733
1442,-1,2,200
311,-22,4,650
518,-15,5,2500
19,-6,5,200
46,5,1,7000
338,-15,5,138
338,-15,5,138
767,-16,4,750
2318,-12,5,150
250,-14,5,600
192,-20,1,600
668,-22,4,350
1878,-13,5,1033
469,-15,5,500
419,-1,4,950
350,-6,5,1050
711,54,4,600
675,-14,5,4338
483,-17,5,3890
20,-12,4,650
1271,11,1,150
2279,-18,5,400
141,-1,5,233
427,-17,5,600
835,-4,4,2600
489,-8,5,513
1245,-14,4,250
837,-13,5,4500
15,-2,5,350
219,-4,5,325
2468,-24,3,325
336,-41,4,1150
1815,-10,4,200
334,-13,5,950
35,1,5,11600
466,14,1,500
42,-3,5,600
1808,-17,5,140
487,-13,5,400
2106,9,1,12650
291,-13,4,6050
653,-14,1,200
653,-14,1,200
908,-11,4,2200
286,-12,1,100
39,-17,5,335
2232,-22,5,700
563,-3,5,513
732,-23,3,217
1216,-14,5,2100
116,-10,3,400
2111,-3,4,300
864,-13,3,1110
1055,-13,5,1700
60,-9,5,1400
64,-6,3,700
18,-10,4,1500
54,-7,5,2900
27,-7,4,2600
542,-5,5,2300
174,-7,3,2200
5,-9,3,250
422,-10,5,150
514,-6,1,5250
1508,-18,4,850
521,-1,5,375
540,-1,5,375
521,-1,5,350
540,-1,5,350
108,-11,5,4550
415,-8,1,800
415,-8,1,800
317,-15,5,1700
317,-15,5,1550
54,0,2,9300
1324,-17,4,491
481,-14,5,1500
17,-15,5,350
524,0,3,173
347,7,3,250
324,-10,5,1400
342,-11,2,300
409,-18,5,1550
543,-6,5,350
505,-22,5,169
12,-2,4,2150
16,0,5,825
315,-13,5,2500
509,-16,5,175
281,-12,1,25200
281,-12,1,19800
895,-6,4,6950
550,-16,5,2400
812,-18,5,1600
667,-6,5,8050
448,-12,5,300
1185,-21,4,1600
144,-7,5,7150
2567,-18,1,3450
319,-4,1,200
8,-27,1,225
342,-5,1,1750
175,-19,5,250
586,-17,5,4450
202,-8,3,200
202,-8,3,200
359,-5,5,12050
765,-5,1,350
415,-19,4,286
295,-6,4,145
565,-22,4,250
565,-22,4,250
819,-13,4,250
339,-5,5,127
543,15,1,1550
26,-4,5,200
26,-4,5,200
800,-28,5,175
350,-3,5,750
309,-11,5,825
1253,-4,5,9000
308,-6,5,434
182,-19,4,300
392,-15,5,2500
335,-11,5,5950
126,-7,5,12250
8,-8,5,350
118,-10,4,300
355,-10,5,4920
2460,10,1,3750
794,-16,3,100
17,-9,5,1350
331,-12,4,2600
331,-12,4,2600
889,-14,5,1850
1119,-21,5,200
345,-8,5,371
302,-10,4,300
NULL,0,NULL,1150
NULL,0,NULL,1150
502,-10,5,30000
1454,-19,5,800
894,1,3,8600
6,-11,5,150
1231,-44,5,2841
2358,-17,1,400
1105,-8,3,300
126,-10,4,250
23,-7,4,300
2506,-21,4,250
201,-15,3,1383
288,-2,5,1625
56,-7,5,175
56,-7,5,175
840,-24,4,250
1473,3,5,550
562,-17,5,147
2384,-12,2,250
183,-11,4,200
292,-13,5,1375
447,26,1,250
768,-15,5,150
194,-7,4,750
990,-20,5,336
1916,-15,5,6900
413,-6,5,1000
302,-20,5,300
322,-9,4,200
71,-2,2,350
771,-2,4,1450
41,-7,5,16650
422,-17,5,5950
67,-14,5,550
410,-21,4,4400
NULL,-1,NULL,4550
236,7,1,1867
345,-15,4,1200
822,-21,4,3850
505,-19,4,200
2012,-23,5,50
785,-17,5,3250
1142,-7,5,700
2114,-16,4,373
2114,-16,4,373
529,-9,5,600
370,-10,5,1100
1224,-17,4,3900
1531,-9,4,1825
156,-12,5,200
2078,-20,4,1775
839,-18,5,100
839,-18,5,100
78,-17,5,532
614,-20,5,400
371,-6,3,300
39,-10,5,1700
15,-1,5,550
821,-28,5,350
92,-15,5,1250
698,-4,4,1500
348,-19,4,8350
510,-10,5,30000
896,-6,5,30000
470,-13,5,12800
302,-11,3,4800
779,-11,1,24050
152,5,5,1050
740,-6,5,1383
475,-13,5,7200
659,-23,1,200
401,-25,3,1833
401,-25,3,1833
401,-25,3,1833
98,-7,5,200
98,-7,5,200
935,-16,5,200
436,-14,4,250
758,-19,2,500
2279,-14,5,150
52,-6,5,350
52,-6,5,350
298,-9,5,1583
2469,-26,5,887
1437,-34,5,600
326,-21,5,700
512,-15,5,850
1072,-3,1,5500
325,-11,5,600
336,35,1,150
630,-1,5,300
242,-7,4,30000
47,-2,4,500
1385,-4,3,200
1390,-4,3,200
1385,-4,3,400
1390,-4,3,400
NULL,-15,NULL,163
2099,-7,4,200
646,-9,5,150
6,-15,4,5100
549,-11,4,150
752,-13,3,2750
71,-13,4,400
572,3,4,1200
2202,-25,5,4475
9,-9,5,350
9,-9,5,300
2,-13,3,1050
812,-17,4,700
683,-17,5,100
187,4,5,100
304,-17,5,1617
1616,-27,5,725
1616,-27,5,725
1616,-27,5,725
1616,-27,5,725
421,-13,4,333
589,-21,5,200
589,-21,5,200
154,-22,5,200
846,-15,5,133
16,-2,5,4000
164,-13,4,700
32,-6,5,483
96,-16,5,200
19,-11,4,100
334,-25,1,2650
467,-13,5,7650
648,-18,3,700
133,-10,5,100
1453,-14,1,1550
1453,-14,1,1550
363,-15,4,1650
960,-18,3,2243
149,-8,3,650
40,-10,5,7000
320,14,1,100
NULL,-16,NULL,100
303,-7,5,1350
88,-18,4,400
470,-13,5,12000
303,-23,1,600
303,-23,1,550
590,7,1,3450
843,-13,5,231
2305,-19,5,75
143,-10,4,6550
2481,-25,5,700
284,-13,5,1000
345,-17,4,6550
124,1,2,275
343,-13,5,250
703,-6,5,1750
1870,-22,4,533
288,-14,5,200
569,-12,4,950
569,-12,4,950
569,-12,4,950
569,-12,4,950
247,-17,5,200
247,-17,5,200
425,-9,5,50
425,-9,5,50
585,-15,5,500
477,-10,5,150
314,-5,3,650
511,3,1,400
351,-23,5,500
533,-26,3,180
347,-7,5,600
310,-18,5,450
833,-18,1,350
20,-6,5,100
143,-8,4,300
6,-12,5,400
6,-12,5,400
381,-9,3,1800
334,-11,5,400
885,-14,4,450
731,-3,4,7500
40,-8,5,300
598,-13,1,4500
134,1,3,700
349,-14,4,5950
916,-13,5,6850
15,-13,5,620
577,-16,5,450
577,-16,5,450
225,-13,5,150
2479,-21,5,1150
667,-12,4,825
1062,5,4,3000
356,-38,5,550
496,-7,5,250
23,-12,5,9400
624,-19,4,1200
769,-21,5,282
769,-21,5,282
324,-11,4,6550
518,-29,5,584
648,1,5,2200
616,-9,5,1874
1629,-17,5,500
820,-16,5,562
1873,-17,4,8350
937,-15,4,600
293,-5,4,1350
20,-13,4,400
1794,-23,5,200
2355,-26,5,2000
789,-27,4,350
40,-15,5,444
2100,-9,3,7050
427,-35,5,300
532,-12,5,100
532,-12,5,100
532,-12,5,100
532,-21,5,700
572,-14,4,584
888,-11,4,3100
756,-15,2,26500
NULL,-9,NULL,800
NULL,-9,NULL,800
NULL,-9,NULL,800
NULL,-9,NULL,800
593,-10,4,6550
928,-33,5,1050
916,-17,5,200
393,-18,4,12250
393,-18,4,12250
67,-6,5,50
96,-14,4,2600
301,-21,3,15475
2171,-11,4,350
1090,-22,5,7100
26,-9,4,250
129,-6,5,600
417,-9,5,2600
696,-18,5,75
523,-5,1,125
758,-6,4,225
1123,-23,5,100
712,-24,5,9500
555,-14,5,1600
555,-14,5,2350
555,-14,5,250
531,41,1,200
10,-1,5,150
177,-15,5,6400
544,-12,5,400
241,-6,5,1550
456,-16,5,300
1333,-14,5,300
560,2,5,200
303,-12,1,450
NULL,-15,NULL,5700
1471,-20,5,3300
16,-9,5,1200
602,-11,5,1825
362,-16,5,1720
2165,-3,4,4663
11,-4,4,283
130,-7,5,1110
1924,-12,5,550
563,-16,5,300
478,-27,5,6550
2059,-7,5,3700
749,-8,1,150
349,-4,3,1400
349,-4,3,1400
349,-4,3,1400
349,-4,3,1400
349,-4,3,1400
475,-14,5,1500
49,-6,5,6350
319,-8,4,200
942,-33,5,150
931,-27,3,100
1712,-2,5,200
34,-6,3,12160
294,-16,3,400
1523,-14,5,600
790,-14,1,2400
449,-10,4,350
209,-21,5,4600
480,-8,4,338
74,3,4,150
39,-4,5,750
13,-14,5,1050
1674,-10,5,400
387,-10,5,800
387,-10,5,800
375,-22,5,300
319,-20,5,1100
572,-7,5,321
3139,-13,5,200
1152,-5,4,250
554,-15,4,1200
348,8,5,500
391,-16,5,700
1006,-23,4,396
2375,-2,4,350
47,-13,5,150
996,-13,5,683
391,-22,5,3000
26,-2,5,450
74,6,1,150
46,-8,5,4200
15,-11,3,7225
15,-11,3,7225
15,-11,3,7225
233,-17,4,300
47,-4,5,8750
1284,-7,5,550
749,-19,5,500
1934,15,5,250
674,-22,5,100
1519,-18,5,155
355,-21,4,1450
131,-15,4,800
88,-2,5,1250
2713,-23,4,9750
1463,-23,5,1800
650,-5,5,350
968,-10,5,400
1026,-9,4,6050
963,-7,3,4100
159,-16,5,2450
322,-11,3,900
348,-5,5,200
1178,-11,5,6050
1178,-11,5,6050
1178,-11,5,6050
1471,0,4,6200
549,-25,4,233
338,-9,1,700
338,-9,1,700
524,-18,4,1032
524,-18,4,1032
425,-10,5,820
33,-6,5,1700
899,-5,5,600
1295,29,1,1200
329,-17,5,200
329,-17,5,200
42,-9,4,8600
13,-14,5,750
2424,-21,4,628
163,-34,4,1900
499,-6,5,3200
19,-18,5,2600
30,-9,3,700
484,-15,5,7650
783,-13,5,2550
111,-12,4,7000
338,-14,1,50
338,-14,1,50
2250,-12,3,250
488,-4,5,1400
467,-9,5,1100
585,-19,5,350
562,-24,4,1300
34,-8,4,1675
507,-5,5,2100
545,-14,5,1650
23,-10,4,150
788,-32,5,1550
26,-20,4,213
2101,10,1,300
797,-28,5,2475
1139,16,1,150
363,-10,5,1200
337,-11,5,450
349,-13,1,300
396,-7,5,1650
1209,-1,4,350
350,-2,5,750
2507,-30,5,150
105,-7,5,4105
715,-13,1,4073
96,-6,5,200
96,-6,5,200
826,-6,5,600
492,-9,5,3550
2297,7,1,1750
429,-29,5,1650
1105,-16,5,5650
2235,-8,5,350
458,-3,4,175
836,-19,5,450
228,-11,5,1000
3,-14,5,1700
1769,-18,3,533
91,-11,5,17533
328,-19,5,100
132,-12,4,250
360,-16,5,100
429,-14,5,700
429,-14,5,700
455,-19,5,1050
646,-21,5,125
284,-10,5,1100
816,-11,5,2450
303,-6,5,4338
1787,1,3,150
469,-14,5,175
493,-2,4,1550
22,-14,5,7350
2,-8,3,200
563,-16,1,2693
628,-15,5,1000
628,-15,5,900
489,-3,3,1700
330,-23,5,9725
951,-12,4,200
63,-35,5,1350
63,-35,5,1350
63,-35,5,1350
48,-10,5,660
28,-9,4,500
328,-25,4,450
780,-22,4,1350
780,-22,4,1350
36,-13,3,7550
26,-12,5,1300
357,-10,3,125
2470,11,1,900
513,-14,5,575
568,-11,5,2100
146,-11,5,125
1748,-14,1,250
503,-14,4,16200
548,-8,2,3200
67,-14,5,175
120,-13,5,1050
273,-15,5,5300
217,-7,4,1200
2470,-23,5,1000
462,-16,5,150
589,-1,4,700
418,-13,4,8325
1895,-15,4,459
445,5,2,200
810,-19,5,200
1136,-27,1,600
33,-3,1,250
41,-12,5,100
276,-21,5,2650
1269,-10,3,7000
397,-13,4,475
2490,-21,5,363
24,-12,4,200
6,-13,3,2600
311,-6,5,525
120,-3,5,900
2136,-13,4,225
605,-14,4,150
605,-14,4,150
341,-12,5,5950
1120,-17,5,3250
414,-5,5,9650
865,-27,3,4200
127,-2,4,4375
681,-21,5,400
681,-21,5,200
681,-21,5,300
681,-21,5,200
681,-21,5,400
355,-13,4,5800
137,-29,5,200
137,-29,5,200
137,-29,5,200
137,-29,5,200
1849,-23,5,533
743,-7,1,1500
870,-14,5,750
2037,9,1,2250
681,-7,5,4500
836,-9,5,5250
18,-9,1,750
110,-9,1,750
18,-9,1,850
110,-9,1,850
580,-5,5,1750
580,-5,5,1700
105,-14,5,150
324,-18,5,20850
904,-11,5,1000
2489,-12,5,250
294,-19,1,167
294,-19,1,167
294,-19,1,167
288,-7,4,1900
1046,-17,1,125
84,-46,5,700
597,-22,5,1300
1172,-1,5,1167
85,-14,4,5150
207,-1,3,1200
120,-6,5,6200
1378,-9,5,900
1477,-22,5,4727
896,-23,5,850
461,-21,5,1650
84,-1,5,300
919,2,1,250
322,-13,5,750
1290,-14,5,450
223,-20,4,250
40,-14,5,400
1406,-17,1,1075
2010,-17,4,800
662,-17,4,431
421,-26,5,1550
29,-8,4,275
29,-8,4,275
856,-16,3,650
154,-13,5,1110
374,-17,5,100
347,-15,5,850
308,-9,5,553
912,-9,4,263
78,-9,4,350
400,-16,5,1500
82,-8,4,150
69,-8,4,333
87,-8,1,950
2776,-13,5,1167
384,-28,5,2300
384,-28,5,2300
384,-28,5,2300
343,-5,4,26100
498,-11,5,600
100,-14,3,1400
76,-10,4,600
872,-12,5,717
174,-17,5,200
102,-4,5,250
2101,-4,5,1117
2364,11,1,10850
145,-6,5,3000
145,-6,5,500
577,-14,4,3000
20,-33,1,3300
40,-33,1,3300
20,-33,1,650
40,-33,1,650
288,-15,5,2200
343,-8,3,1871
1921,-3,4,200
34,-12,3,600
301,-7,5,304
11,-14,5,950
537,-14,5,950
11,-14,5,3200
537,-14,5,3200
54,-5,4,83
54,-5,4,83
38,-31,3,2400
48,2,3,2134
382,-15,4,300
342,-21,5,200
651,-20,4,150
73,-17,5,350
1547,-7,5,1450
475,-8,4,1050
11,-5,4,60
938,-20,4,150
239,-9,3,200
16,-9,1,500
55,-15,5,23800
29,-7,1,150
63,-8,5,200
120,-18,5,175
73,-8,5,1050
664,-12,5,1250
2474,-20,5,156
351,-17,1,1850
56,-12,4,1150
884,-10,5,150
2482,-11,3,200
406,-21,4,250
20,-6,4,1550
467,-14,5,100
910,-17,5,2000
568,-17,5,450
335,-8,3,150
487,11,5,150
278,32,1,214
2450,-21,5,900
2450,-21,5,900
25,-11,5,350
698,-4,4,541
338,-16,5,600
1063,-24,5,6650
633,-15,4,1900
8,-11,5,140
8,-11,5,110
883,2,5,100
541,-16,3,342
1447,5,1,433
2364,-24,5,3350
2668,-32,3,600
2668,-32,3,600
620,-16,5,400
2746,-15,5,2750
2229,8,3,430
296,-24,4,1232
363,-18,5,850
363,-18,5,850
1395,-8,5,3000
288,-20,5,500
148,-14,5,2200
349,81,4,2425
808,-27,4,1200
442,24,1,442
1628,-26,5,200
124,-12,4,1800
197,8,1,100
539,14,1,1050
19,-7,5,1517
290,-17,4,3650
2450,-17,5,500
860,-11,3,1650
860,-11,3,1650
860,-11,3,1650
343,-16,5,550
21,-7,3,1000
361,-10,4,5950
458,-9,1,150
2693,-40,5,5250
606,-11,3,1350
18,-13,3,375
18,-13,3,375
950,-5,5,550
950,-5,5,550
NULL,-10,NULL,1563
456,-18,5,2050
76,-15,1,150
183,-9,1,300
183,-9,1,250
223,-14,5,150
823,-20,5,350
725,-13,1,525
752,-13,1,525
725,-13,1,4750
752,-13,1,4750
478,-3,1,9050
133,-15,4,700
497,-13,1,450
92,-7,1,363
864,-2,3,17400
854,-16,5,4100
907,1,1,250
797,-21,5,613
65,-7,5,888
65,-7,5,888
679,-32,5,10800
13,-10,5,150
433,-35,4,220
433,-35,4,220
79,-13,5,514
1820,-6,4,2600
590,-2,3,7350
463,-26,4,200
463,-26,4,200
815,-13,5,6300
289,-8,1,833
2471,-23,1,7433
2471,-23,1,7563
488,-10,5,1125
9,-14,4,475
794,-12,5,11467
100,-21,4,1900
1779,-20,5,1825
2665,5,1,400
490,-19,5,400
584,-16,5,9750
491,-13,5,16133
403,-20,5,7350
2267,-35,3,400
314,-15,4,9750
609,0,3,800
360,-27,5,1900
10,-7,5,4105
10,-7,5,5417
NULL,4,NULL,2134
450,-8,5,1750
93,-10,5,350
93,-10,5,350
93,-10,5,350
610,-21,5,2150
65,-13,5,150
1514,-29,5,2550
1057,-42,4,2138
468,-13,5,1200
16,-6,1,200
589,-11,3,3225
12,-9,5,588
352,-20,3,19250
1003,-23,3,150
1791,-28,4,2250
891,-23,5,700
321,-14,5,100
39,-11,4,200
239,-14,1,107
565,-18,5,250
640,-10,5,900
717,-13,5,4350
418,7,1,321
418,7,1,321
418,7,5,321
418,7,5,321
232,-10,3,150
232,-10,3,100
670,-16,5,7700
300,-8,1,2500
300,-8,1,2500
330,-1,5,3850
1781,-15,5,1200
14,-18,5,600
14,-18,5,600
1002,-16,4,2400
1510,-20,1,533
6,-14,1,950
342,-6,5,800
26,-18,5,850
1204,-18,5,300
2221,-16,5,2250
2221,-16,5,2250
2470,-11,5,625
609,-30,5,2300
722,-21,5,5700
573,-38,5,700
18,-13,5,150
280,-14,5,100
280,-14,5,100
509,-16,5,200
524,-17,5,1150
481,-15,4,200
845,-19,5,8900
652,-13,4,400
648,-10,5,400
1765,-19,3,10100
513,-21,5,200
57,-8,5,1600
361,-8,5,5400
575,-14,5,150
1414,-31,5,1050
742,13,2,400
321,17,3,800
369,-11,5,1050
340,7,5,87
1730,-14,4,1200
1386,-13,4,350
744,-11,5,200
543,-10,5,7300
2352,-6,5,200
75,-5,1,200
494,-8,1,173
1230,-18,4,150
240,-20,5,4400
236,-13,5,260
378,-5,4,6550
1804,8,1,6250
34,-22,5,200
14,-25,4,1900
506,-8,5,335
236,-12,5,300
422,-7,1,750
226,-7,5,550
16,-9,5,5575
603,-22,4,150
159,-10,5,800
350,-14,2,100
22,-2,5,750
22,-2,5,950
22,-2,5,750
28,-12,5,8633
14,-8,1,650
14,-8,1,650
14,-8,1,650
935,-8,5,500
25,-20,5,900
476,-7,4,1200
79,-6,4,950
307,16,1,100
915,-26,5,1550
12,-28,5,200
140,-14,5,50
248,-5,4,400
294,-8,5,275
1170,-13,5,13000
99,-11,1,177
340,-8,5,4350
1302,-23,4,450
1066,-7,2,2200
2067,-23,5,5050
371,-18,2,100
1286,-22,5,2083
62,-12,5,125
272,-7,5,433
117,-17,5,550
473,-16,5,775
316,-9,1,1050
316,-9,1,700
929,-7,5,200
929,-7,5,200
1460,-19,5,800
353,-14,5,483
411,-16,5,13600
1313,-3,5,550
25,-10,5,400
1016,-15,5,600
304,-4,5,4338
148,-19,5,50
28,8,2,250
947,-25,2,1300
947,-25,2,1300
1482,0,5,575
44,-15,5,250
618,-16,5,6550
885,-16,5,140
130,-33,5,3100
295,5,4,250
2215,-17,3,925
458,-1,5,5700
559,10,1,800
771,-25,5,560
771,-25,5,560
332,-17,3,300
NULL,-7,NULL,750
49,-14,5,450
NULL,5,NULL,11000
1631,-4,1,533
563,-11,3,584
547,-29,5,584
201,-15,5,100
449,-14,5,4338
152,-7,4,1300
2011,-41,5,1233
2515,-2,1,650
450,-16,5,200
633,-23,5,214
43,-12,5,5400
1008,-19,5,4325
29,-14,5,400
2146,-7,3,200
NULL,-13,NULL,2600
39,-8,3,750
54,-12,4,850
228,-18,5,704
384,-10,5,300
229,-3,4,7650
942,-7,5,100
348,-18,5,150
600,-12,5,150
478,-11,3,125
557,-13,3,10750
349,-13,4,2800
900,-17,5,1000
425,-17,5,3000
120,0,4,250
367,-15,4,1400
132,-7,5,2628
292,-26,3,3000
292,-26,3,7050
292,-26,3,7050
501,-5,5,213
2670,-11,5,5950
28,-5,5,1400
399,-23,5,300
52,-5,5,9450
469,-4,5,300
2,-29,5,1250
332,-9,5,75
549,-14,4,400
842,-21,5,550
397,-6,5,300
1055,-21,5,1650
335,-14,4,1000
79,-17,5,2600
430,-17,3,9200
2669,-22,4,100
2669,-22,4,100
2669,-22,4,100
2669,-22,4,100
2669,-22,4,100
308,-19,5,1000
327,-15,5,600
951,-17,5,8150
609,12,1,2500
609,12,1,600
92,-1,5,450
1088,-7,4,950
571,0,2,400
1444,-9,1,150
1444,-9,1,150
305,-26,5,450
11,-14,5,800
100,-7,5,3300
590,-13,5,200
979,-34,5,550
324,-8,1,1200
408,-8,1,1200
324,-8,1,1700
408,-8,1,1700
84,0,2,155
896,-10,1,675
929,-10,1,675
896,-10,1,650
929,-10,1,650
896,-10,1,900
929,-10,1,900
770,-1,5,3890
136,-1,4,15100
317,-10,4,250
2666,-14,5,900
1284,-18,5,1650
853,-26,4,7950
220,-29,5,283
1119,-13,5,400
136,-12,5,250
635,-16,4,150
325,-9,5,1350
3,-8,5,400
2358,-19,4,1000
262,-6,5,2350
73,-6,4,335
9,-3,3,450
248,-9,5,1800
267,-5,4,250
39,-14,5,1750
1337,-31,4,300
765,-23,5,450
613,-3,4,133
315,-12,5,200
2295,-25,5,300
457,-14,5,2600
686,0,3,178
2092,-14,4,950
17,-7,2,200
36,-7,2,200
17,-7,2,250
36,-7,2,250
17,-7,2,250
36,-7,2,250
266,-11,5,4267
510,-18,5,100
813,-14,5,2900
576,17,1,1800
77,-14,5,200
1304,-1,5,250
1878,-30,5,10750
1689,-30,5,10750
1878,-30,5,1250
1689,-30,5,1250
91,2,1,550
494,-14,5,200
1536,-18,5,125
121,-2,3,200
33,-13,5,499
288,-14,3,450
7,-16,5,1400
50,-7,5,150
134,-7,5,200
96,-19,5,850
10,-7,5,15800
183,-10,4,1300
575,-14,4,1400
575,-14,4,1400
575,-14,4,1400
2825,-26,5,100
903,-39,5,400
2104,-13,5,1300
1465,-14,1,750
479,-13,4,1000
407,-18,4,835
565,-20,3,300
120,0,1,15100
310,-12,5,550
58,-20,1,3800
482,-16,1,600
482,-16,1,600
846,-20,4,400
41,-7,5,700
1475,4,1,6317
156,-4,5,350
647,-17,5,9150
1875,-11,4,10150
16,-45,2,375
34,-45,2,375
16,-45,2,200
34,-45,2,200
492,-15,3,700
885,-16,5,400
437,-3,1,240
437,-24,5,3600
437,-24,5,3600
2139,-27,5,100
1120,-8,5,1900
15,-11,5,850
1546,-8,4,200
365,-11,1,2800
305,0,4,2525
866,-23,5,250
802,-14,5,300
802,-14,5,300
1133,-2,5,170
343,-4,4,1150
343,-4,4,1150
387,-18,5,100
556,-7,5,350
220,2,2,7650
971,-11,5,450
1858,-44,2,1200
1877,-44,2,1200
1564,-44,2,1200
1858,-44,2,4000
1877,-44,2,4000
1564,-44,2,4000
1858,-44,2,1300
1877,-44,2,1300
1564,-44,2,1300
1858,-44,2,1200
1877,-44,2,1200
1564,-44,2,1200
1197,-10,4,50
345,-14,2,3150
10,4,1,1700
374,-18,5,100
2102,-11,5,350
685,-20,4,350
661,-12,5,263
62,-10,4,2600
666,-7,2,250
358,-15,5,100
3315,-7,3,200
56,-6,4,13350
886,-25,5,250
849,-25,5,3450
56,-14,5,150
2282,-20,5,200
592,21,1,3450
38,-11,4,1410
468,-11,5,550
467,-13,5,500
NULL,-8,NULL,200
2942,-26,5,950
562,-10,5,1750
327,20,2,2400
367,-17,5,850
93,-2,2,2150
52,-7,4,150
2037,-19,5,350
283,-9,5,600
721,-15,1,3717
241,-13,5,156
241,-13,5,156
1920,20,2,228
161,-12,5,1350
680,-11,5,1500
680,-11,5,1500
417,5,1,900
46,-12,5,1900
339,-12,5,200
116,-13,5,4105
487,-6,5,200
354,-22,5,150
251,-5,5,10750
490,16,1,400
799,-14,5,100
595,-18,5,150
591,-16,5,7050
665,-15,5,1650
712,-26,3,650
25,-7,4,1500
915,17,2,825
NULL,11,NULL,200
810,7,3,300
765,-14,1,150
325,-18,4,200
60,-16,4,2600
60,-16,4,2600
332,-24,5,207
2485,-17,5,175
257,-8,4,150
159,-10,5,584
660,-17,5,400
467,-2,5,4600
NULL,-1,NULL,15800
1248,-13,4,8750
10,-8,4,350
1169,-20,5,1850
830,-11,4,2500
198,-9,5,1350
198,-9,5,1300
2262,-20,5,2200
1003,-19,5,1032
369,-11,5,3500
362,-4,4,300
224,-6,4,15700
650,-14,5,500
103,-6,5,1380
103,-6,5,3305
553,-16,5,353
349,-10,5,50
1984,-9,4,400
922,-2,5,13700
400,-8,5,1650
335,-20,5,1200
684,-14,5,1400
442,-32,5,1100
797,-10,5,350
103,-18,4,400
473,-13,5,700
1455,-5,5,100
797,-20,5,400
797,-20,5,400
349,-13,1,300
349,-13,1,300
349,-13,1,300
255,-12,3,22350
15,-3,5,200
408,-30,4,600
199,-11,5,444
402,-11,5,2800
402,-11,5,2800
402,-11,5,1500
624,-5,3,400
685,-29,5,17600
2195,-28,5,150
310,-18,5,100
10,-20,5,13900
103,-147,5,5300
103,-147,5,5300
819,-14,5,22700
97,-7,5,10000
1030,-15,5,850
377,-7,4,1400
665,-23,1,400
665,-23,1,400
665,-23,1,350
840,-18,5,6550
1063,-7,5,3200
1648,-22,5,300
50,-10,1,200
50,-10,1,250
1995,-17,5,300
1023,-22,5,300
183,9,1,3000
1273,-7,5,1500
281,-28,3,250
76,-15,5,100
474,-21,5,100
1041,-14,4,550
204,-19,4,2600
1076,-20,4,650
330,-34,5,700
8,-13,5,1450
1377,-16,5,1500
1195,-4,3,600
45,-10,5,1200
45,-10,5,1200
45,-10,5,1200
45,-10,5,1200
1036,-12,4,584
538,-16,5,350
488,-4,4,450
436,-7,5,500
89,-18,1,2000
825,-8,3,250
267,-20,5,3250
489,-21,3,400
135,-17,2,1350
2362,-11,2,200
13,-9,4,350
493,3,1,100
493,3,1,100
1201,-15,5,480
795,-21,5,335
383,-12,3,2450
478,-20,4,900
410,-12,1,8750
463,-29,4,300
2486,7,5,200
343,-34,3,2200
354,-18,5,1600
396,-16,5,6550
814,-21,5,1836
814,-21,5,1836
215,15,5,20650
242,-13,1,375
108,-11,3,163
605,-20,5,200
72,-6,5,5525
816,1,5,250
79,-8,5,950
79,-8,5,1900
424,-19,5,16150
461,-16,5,150
441,-9,4,1200
316,-14,5,1200
129,-12,5,350
509,-35,5,584
522,-7,5,600
522,-7,5,600
522,-7,5,600
311,-5,4,800
424,-7,5,1500
1347,-27,5,200
18,-7,3,1500
388,-8,5,2750
727,-20,5,350
562,-27,4,1850
147,-20,5,400
297,-15,5,7350
661,-14,4,500
132,-8,2,3100
372,-14,5,200
NULL,-21,NULL,250
823,-10,5,425
842,-17,5,1900
352,9,1,250
540,-9,5,850
369,-28,3,1600
324,-16,5,150
781,-27,5,157
377,-15,5,1700
550,-12,2,700
536,-14,4,1600
2272,-17,5,300
778,-18,4,410
778,-18,4,410
14,-5,5,250
1221,0,2,308
1022,0,4,200
441,-12,5,517
97,-13,5,4950
3,-14,5,100
678,-29,4,750
567,-20,5,475
NULL,-16,NULL,1400
122,-8,5,150
503,-16,5,1200
1033,-18,5,1500
765,-13,5,1350
413,-20,5,1950
105,-7,4,300
475,-14,5,500
1593,-24,5,7000
2014,-14,4,444
208,-13,1,400
208,-13,1,1950
701,-19,4,300
154,-19,5,250
2130,-1,5,4250
41,-6,4,200
41,-6,4,200
41,-6,4,200
135,-11,4,1582
1131,-13,5,341
2068,-22,4,300
29,-14,5,390
574,-19,5,28100
631,1,1,150
346,-6,2,5650
839,-15,5,2600
2464,-9,5,450
16,-7,4,300
291,-9,3,975
1397,-12,4,9500
28,-2,2,700
1498,-25,4,200
270,-12,3,1250
912,-7,4,1550
36,-25,1,250
36,-25,1,250
36,-25,1,250
36,-25,1,250
57,-7,5,6550
1260,-23,5,100
505,-8,5,4050
2295,-20,2,300
2031,-13,5,3800
2031,-13,5,3800
1652,-15,5,6850
581,-22,5,250
531,-19,5,500
12,-15,5,2017
838,-14,4,200
838,-14,4,200
28,-6,5,200
1936,13,1,350
2,-9,5,450
371,-13,5,1650
17,-5,5,500
2386,-12,5,200
739,-20,5,7000
1840,-10,1,8325
1840,-10,1,9000
2281,-19,3,250
380,-9,5,100
321,-9,5,300
384,-8,5,300
840,2,4,541
56,-7,5,50
1645,-14,5,600
275,-20,5,25950
59,-14,5,1700
352,-8,5,750
406,-15,5,9750
1384,-14,5,2750
12,-10,4,1200
501,-10,4,200
351,-44,5,1950
46,-8,4,200
311,20,5,200
2554,-20,3,700
2554,-20,3,700
220,-20,5,800
664,-9,5,25850
522,28,1,1950
333,-13,2,14350
333,-13,2,14350
837,-15,3,375
459,7,1,200
459,7,1,350
459,7,1,350
76,-6,4,200
427,-29,5,500
427,-29,5,500
427,-29,5,500
23,-10,5,1450
455,6,5,1400
866,-18,5,900
996,-18,5,18000
780,-28,5,300
346,-28,5,125
168,-18,5,200
168,-18,5,200
168,-18,5,200
168,-18,5,200
168,-18,5,200
168,-18,5,200
489,-10,3,150
343,-20,4,250
1251,-18,5,1000
1496,-14,4,4442
1496,-14,4,4442
188,4,5,1650
700,-5,3,2400
1121,-11,4,625
613,-21,5,350
17,-10,4,1050
873,-19,5,250
242,-15,5,1150
689,-20,5,1650
689,-20,5,1650
689,-20,5,1650
689,-20,5,1650
689,-20,5,1650
689,-20,5,1650
689,-20,5,1650
689,-20,5,1650
401,-15,5,1700
14,-12,4,8600
2482,-16,5,800
535,-8,5,650
467,-49,4,1750
467,-49,4,1750
11,-28,5,150
71,-15,5,10650
195,-7,5,150
546,-6,5,5000
460,-18,5,1614
1128,-25,4,2950
2179,-10,4,275
745,-5,5,125
219,-6,4,450
36,-7,5,7000
21,-7,5,400
553,-36,5,10700
140,-3,3,2000
723,-10,5,1400
23,-26,1,250
2107,-21,5,200
10,-5,5,13550
10,-5,5,13550
889,-19,5,150
657,-19,4,415
2351,9,1,175
14,-22,4,950
223,-2,4,100
492,-15,5,500
2106,-15,5,450
2217,-26,1,750
223,-29,5,10550
1414,-10,5,1700
857,-22,5,6100
1174,-15,5,650
45,-7,3,200
361,-21,3,800
705,-12,5,3500
413,-20,5,1550
5,-17,5,350
336,-21,5,100
1150,-23,4,550
149,-14,1,13350
345,121,4,460
624,-13,5,750
302,-7,5,250
766,-17,4,12950
696,-26,2,3000
696,-26,2,3000
696,-26,2,3000
696,-26,2,3000
173,-13,3,1750
173,-13,3,1750
335,-15,4,1750
658,-11,5,2150
658,-11,5,2630
2293,-17,4,2300
710,-29,5,150
334,-16,5,2900
18,-14,5,200
1082,-23,5,3450
2620,-35,5,1700
4,-10,5,2800
831,-16,5,2750
338,-12,5,1000
683,13,2,150
2332,-10,5,3525
217,-12,4,4850
337,-12,5,325
499,-8,4,2450
2105,-10,5,200
760,-4,5,4350
589,-7,4,950
2081,-9,1,9050
311,-10,5,396
1095,-13,5,1750
311,-20,5,10050
1854,-14,4,250
1675,-1,5,300
382,-15,5,600
1236,-11,5,750
414,-12,5,650
486,-19,3,800
321,-10,5,1383
725,-17,4,75
24,-6,1,310
13,-5,5,400
48,-2,5,16133
1326,-14,4,700
265,-13,5,100
265,-13,5,100
12,-3,5,1500
352,-6,4,717
27,-14,3,150
307,-11,5,1250
918,-4,5,7000
2361,-6,2,8700
895,-8,5,850
284,-8,3,1550
345,-42,5,950
932,-20,1,400
513,-15,4,974
1741,-28,5,200
1430,0,4,1400
1985,-21,5,1000
1586,-22,5,1150
199,-17,5,900
28,-12,2,4600
94,-2,5,200
376,-12,5,3900
574,-15,5,5000
2317,-9,5,600
130,-5,5,1150
347,-22,5,1143
739,-6,3,2250
739,-6,3,2250
739,-6,3,2250
739,-6,3,2250
460,-26,4,2550
54,-7,1,183
1540,-15,5,250
1299,-9,4,185
8,-4,5,2500
8,-4,5,2500
936,-11,5,200
61,-4,5,250
833,-28,2,14150
2207,-21,5,200
2471,-25,5,767
191,-3,5,1550
260,-7,1,650
1151,-10,5,950
1282,-15,4,1800
24,-15,5,150
539,-21,4,150
632,-2,2,30000
2924,-7,5,325
477,-17,5,50
539,-8,5,1100
549,-7,5,1100
549,-18,3,500
1563,-8,3,500
803,-7,3,4550
959,-6,5,500
562,-14,5,200
370,-25,5,4800
8,-7,4,225
320,-15,5,1600
26,-7,5,150
294,-9,5,1825
417,-26,3,200
497,-13,5,3525
777,-14,5,2900
193,-13,5,1700
840,-18,5,300
2353,-3,4,650
195,-2,1,400
195,-2,1,400
2233,104,5,500
193,-14,4,1815
2706,31,1,250
9,-17,5,500
363,-18,5,2438
301,1,5,100
75,-17,3,300
75,-17,3,300
568,-4,5,240
2703,-15,5,530
143,-7,5,250
1103,-14,4,350
1103,-14,4,350
13,-1,5,350
2693,-30,4,750
812,-14,5,200
1628,-29,5,2033
2173,-20,5,1400
1186,-17,4,4000
30,-12,5,450
615,-6,5,750
333,-27,5,5700
NULL,1,NULL,275
508,-17,4,1110
499,-8,4,200
866,-27,3,1100
1183,-8,2,300
145,-14,5,250
2766,-14,4,1600
1177,-15,5,450
839,-14,3,200
282,-16,5,2500
34,-13,5,250
120,-5,5,450
549,-19,5,133
303,-15,5,7625
1606,-10,4,500
418,-6,5,1650
796,-8,5,200
62,-7,5,1000
860,-8,5,700
104,-11,1,1750
234,-14,5,450
308,-4,5,4100
2373,-8,5,550
19,-8,5,100
390,-16,5,575
296,-15,5,768
400,14,1,5500
341,-20,4,500
887,-14,5,21800
309,-25,5,1125
35,-8,3,175
93,-8,3,175
35,-8,3,150
93,-8,3,150
709,-11,3,200
24,-10,4,300
66,-12,4,1400
1947,-17,5,645
358,-8,5,19450
553,-2,3,950
NULL,-11,NULL,1250
140,-22,4,250
2371,-21,5,350
984,-14,5,550
68,-13,4,9725
737,-18,5,150
475,-11,2,396
12,-8,5,300
54,-15,4,250
333,-9,4,3800
441,-13,5,150
441,-13,5,150
29,-8,4,373
198,-17,5,9750
494,-15,5,500
282,-12,5,1417
349,-19,5,900
150,-19,3,275
238,-12,4,500
238,-12,4,600
238,-12,4,650
830,-56,3,832
343,-14,4,2750
33,-15,5,750
365,-15,5,10450
183,-10,5,100
7,-6,5,250
217,-9,1,950
217,-9,1,950
438,-32,5,2250
1451,-20,5,575
1451,-20,5,517
NULL,-4,NULL,1250
330,-13,4,550
39,0,5,100
313,-11,4,1383
1636,-22,5,1950
965,-26,5,100
836,7,2,2700
835,-3,4,50
475,-9,5,200
111,-7,4,218
565,-18,5,7000
382,-9,5,792
580,-11,5,200
654,-23,2,900
59,-3,5,620
341,-17,5,180
341,-17,5,180
281,-7,5,335
77,-13,5,400
156,-21,5,1400
229,-9,5,22350
287,-9,1,1300
571,-5,5,850
571,-5,5,850
571,-5,5,850
34,-5,5,400
99,-18,4,1617
927,-9,5,800
860,-8,5,150
493,-21,5,1650
686,-13,5,2600
29,-9,5,250
12,1,4,175
834,-17,5,107
456,-33,5,2250
416,-16,5,800
741,40,1,700
741,40,1,700
164,-11,5,335
227,-9,5,1500
1156,-11,5,275
2067,-28,5,30000
336,-18,5,200
532,-7,4,150
342,-6,5,1800
298,-13,5,922
333,-14,5,1050
548,-6,4,100
494,-14,4,183
345,-20,5,1813
345,-20,5,1813
635,-16,5,950
356,13,1,500
468,-11,5,2152
1035,-4,4,1000
727,-13,4,150
329,-8,1,250
762,3,1,1650
130,-10,5,600
1210,-15,5,600
84,-11,4,25400
679,-18,5,1300
223,4,4,1383
NULL,-13,NULL,2200
535,-2,1,207
78,-6,5,1500
875,-17,5,167
304,-16,5,1300
86,-19,5,850
519,-19,5,350
11,-28,5,200
161,13,1,1383
485,-20,5,400
723,-19,5,967
487,-8,5,10150
2110,-15,5,584
809,-13,5,500
854,-33,5,155
275,-11,5,300
159,-13,4,790
488,-20,5,650
1534,-8,5,450
1534,-8,5,450
1534,-8,5,450
12,-7,5,500
472,-13,5,8050
1409,-14,5,2650
24,-7,5,200
471,-17,4,1183
25,-6,4,2350
4,-10,5,200
56,-2,4,150
56,-2,4,150
1002,-16,5,700
535,-14,4,10900
495,-17,4,400
87,-9,5,258
87,-9,5,258
555,-26,5,1325
901,-43,5,1200
1522,-12,4,600
6,-8,5,253
6,-8,5,253
6,-8,5,253
503,-13,5,1200
659,-17,3,8500
361,-18,5,600
22,-13,1,450
647,-20,5,500
488,0,5,2500
758,-37,2,600
758,-37,2,600
13,-2,4,550
306,-13,5,250
2197,-14,4,2200
26,-4,4,300
500,-17,4,150
398,-10,5,750
2322,-21,5,850
330,-25,5,4900
288,-10,1,300
813,-17,4,800
1126,-18,5,1300
20,-4,5,150
20,-4,5,150
NULL,-38,NULL,500
NULL,-38,NULL,350
NULL,-38,NULL,500
730,-14,4,267
294,-8,1,300
10,-22,5,150
2667,-3,4,800
185,-13,5,1277
245,-6,5,1900
71,3,2,23250
722,-23,5,250
755,-13,5,3450
271,2,3,1200
322,-14,1,23900
2175,-20,5,1800
1057,-10,4,150
43,-12,4,1167
864,-21,5,1650
48,-7,5,18050
191,-12,4,1450
447,7,2,167
2322,-13,4,1200
589,-1,5,400
1689,28,1,1600
1130,-14,5,10150
250,-17,1,600
887,-11,5,1200
887,-11,5,1200
887,-11,5,1200
319,-9,5,750
421,-12,5,1650
140,-7,1,200
609,-15,1,600
765,-15,1,600
609,-15,1,500
765,-15,1,500
609,-15,1,600
765,-15,1,600
609,-15,1,600
765,-15,1,600
713,-16,5,5100
51,-4,5,400
1045,-23,5,700
402,-9,5,475
484,-8,4,100
2346,11,1,11875
542,-9,5,1200
900,-24,2,974
490,-18,4,490
597,-7,4,600
806,-25,1,900
743,-36,3,6550
346,-16,3,150
41,-3,2,1350
539,-16,5,800
2147,10,1,15700
1937,-11,5,1200
823,-7,4,2050
317,-13,5,2550
413,-3,4,7150
451,-5,5,1300
16,-4,5,200
433,-29,5,5950
442,-10,5,300
251,-15,3,8450
401,3,4,6225
100,-9,4,600
2182,-44,5,1400
366,-9,5,200
311,-29,5,10600
556,-21,2,250
408,-11,1,250
357,-32,2,400
615,-13,4,1200
435,-16,5,275
33,-20,5,7700
681,-12,5,471
154,-12,3,250
154,-12,3,250
497,6,3,335
1459,-15,5,600
26,-4,5,150
26,-4,5,150
307,-4,5,11880
307,-4,5,11880
307,-4,5,11880
32,-5,5,1100
17,-34,5,7500
909,-15,4,150
166,-15,4,1500
63,-7,4,450
22,-6,4,50
927,-14,3,700
927,-14,3,700
69,-3,5,265
322,-19,5,4633
277,-1,3,875
125,-12,5,1800
14,-7,3,750
12,-10,5,375
393,-17,4,1400
357,-15,4,600
27,-10,3,226
533,-9,5,250
467,-5,5,5850
226,-16,5,600
213,-9,5,496
108,-9,3,250
82,-8,5,100
263,-5,5,371
490,-13,5,75
NULL,-14,NULL,1383
2189,12,1,669
224,-11,5,6200
45,-18,5,1250
807,-16,5,900
111,-14,5,1450
111,-14,5,1450
407,3,1,300
425,-12,1,350
425,-12,1,300
2130,-14,4,533
844,-19,5,1650
1080,-21,4,200
36,-12,1,400
745,-1,5,250
967,-14,5,1700
1208,-15,5,200
41,-11,5,600
740,-11,4,700
740,-11,4,700
740,-11,4,700
286,-20,4,1100
657,0,4,9270
11,-7,5,900
177,-8,5,207
177,-8,5,180
337,-11,4,1200
470,-13,5,550
1205,-15,4,625
569,-6,3,1383
499,-13,5,3100
16,-1,5,150
803,-10,5,300
359,-29,5,150
26,-26,5,500
575,-20,4,350
575,-20,4,350
575,-20,4,350
1137,2,4,300
156,-8,4,650
45,-18,4,792
461,-11,5,366
985,-7,5,575
493,-20,3,444
NULL,20,NULL,125
52,0,1,250
777,-14,5,150
757,-12,5,100
287,-9,5,300
388,-14,4,1650
388,-14,4,1650
443,-15,5,50
546,-21,3,133
837,-15,4,1850
260,-18,4,1350
95,-6,5,150
346,-10,5,500
173,-6,5,850
824,-15,4,250
506,-4,3,3567
438,-6,5,2000
38,-15,4,50
793,-11,5,5950
343,-14,5,200
740,-22,5,250
349,-12,5,280
287,-11,5,200
55,-3,5,262
55,-3,5,262
55,-3,5,268
55,-3,5,274
55,-3,5,262
165,-1,4,4600
509,-1,5,500
130,-8,5,30000
453,-9,5,133
453,-9,5,133
22,-11,4,200
1419,2,5,400
357,-9,3,900
422,-13,4,850
815,-20,5,400
12,-11,4,650
1704,-27,5,400
128,-7,5,3150
902,-20,5,1100
2082,-21,5,700
251,-9,5,444
2020,-28,5,2200
627,-35,5,5250
467,-17,5,300
210,-2,3,713
530,-7,4,4105
422,-10,3,400
1152,10,1,1100
2352,-28,5,225
157,-7,5,900
157,-7,5,1017
826,-15,5,250
299,-4,5,250
2143,-5,4,600
485,-6,5,14850
620,-17,5,1150
269,-14,2,6050
393,-16,5,200
314,-27,5,2500
290,8,1,584
40,-7,5,500
294,-4,2,2125
489,-7,5,210
489,-7,5,210
281,-20,5,1477
365,-14,4,653
589,-3,4,900
610,-16,5,550
479,-14,5,9750
502,-13,4,2200
111,1,5,430
21,-5,4,250
105,-10,5,600
360,-27,5,650
62,-34,5,2965
17,-7,5,317
34,-10,5,250
251,-13,5,200
511,-20,5,21900
558,-20,5,250
NULL,-12,NULL,400
764,-18,5,922
764,-18,5,922
764,-18,5,922
764,-18,5,922
137,-14,5,400
15,-12,5,200
366,-13,4,900
792,-27,5,7750
1700,-6,3,225
492,-14,4,2200
2252,-20,5,900
576,4,5,675
299,-13,2,1450
827,-17,4,250
1883,6,5,250
143,-21,5,1200
NULL,-23,NULL,700
2247,-7,4,5050
NULL,-8,NULL,850
392,-21,2,100
1594,-13,5,200
NULL,-3,NULL,1700
24,-12,5,700
206,-9,4,4300
206,-9,4,4300
646,8,1,1100
358,-22,5,792
699,-16,4,700
840,-21,4,1700
473,-23,2,1533
41,-10,5,5700
NULL,-6,NULL,7625
230,-14,5,250
492,0,5,1650
21,-6,3,75
769,-10,5,7000
320,-42,5,350
2342,-16,5,250
757,-21,4,2850
506,-4,5,8250
28,-4,1,225
1357,-17,5,30000
878,-7,3,200
349,-13,5,1813
467,-22,5,300
5,-22,5,300
467,-22,5,370
5,-22,5,370
2224,-12,5,584
66,1,1,150
8,-7,5,200
686,-28,5,3750
1481,-14,5,300
254,-13,4,5150
254,-13,4,5150
84,-7,5,500
74,-9,4,150
869,-24,5,500
550,-12,5,850
381,-12,5,550
10,-8,4,2300
7,-16,5,1100
483,15,1,650
325,-9,5,380
339,-14,5,2350
340,-14,4,50
340,-14,4,50
327,-11,5,150
1157,-22,2,1250
480,0,5,125
489,-20,5,1300
68,-10,5,515
577,-9,5,550
24,-9,5,350
24,-9,5,350
943,-48,4,2138
310,-21,2,13250
336,-13,5,600
417,-18,5,350
11,-15,5,550
520,-15,5,550
205,-15,5,550
11,-15,5,550
520,-15,5,550
205,-15,5,550
11,-15,5,1600
520,-15,5,1600
205,-15,5,1600
11,-15,5,1650
520,-15,5,1650
205,-15,5,1650
11,-15,5,600
520,-15,5,600
205,-15,5,600
11,-15,5,600
520,-15,5,600
205,-15,5,600
11,-15,5,600
520,-15,5,600
205,-15,5,600
831,-9,3,133
1909,-17,5,1200
868,-5,1,100
2355,-18,3,200
481,-18,5,650
892,-44,5,1400
2255,-14,4,1800
318,-10,4,2100
89,-1,4,5850
1559,-12,3,200
259,-13,5,2450
576,-13,5,1200
292,-11,4,150
292,-11,4,150
1551,-6,5,300
711,-14,4,6525
365,-11,1,1600
536,-13,3,350
1075,-9,5,150
446,-10,4,150
446,-10,4,150
331,-21,3,600
158,-8,5,250
1071,7,1,250
671,-25,3,500
454,-16,5,6000
2389,-24,5,2283
150,-19,4,400
1117,-20,5,100
325,-8,5,9850
2209,-24,4,2500
2180,-11,5,650
2180,-11,5,650
53,-11,4,4350
376,-14,5,350
378,-64,5,2000
23,-10,4,303
325,-10,5,5300
92,-2,5,1225
405,-5,5,1500
397,-2,5,400
809,-11,5,2300
2352,-9,5,1450
719,-6,5,300
484,-17,5,330
2605,23,1,400
1471,-10,5,450
141,-6,5,600
488,-14,5,150
413,-13,4,1750
8,-11,5,950
230,-9,3,200
475,-5,4,1200
1090,-14,1,150
1090,-14,1,150
1090,-14,1,150
522,-9,5,584
813,-29,5,1500
18,0,1,200
18,0,1,300
18,0,1,600
18,0,1,300
18,0,1,200
4,-13,5,1167
93,-6,2,321
467,-13,5,733
1874,-14,5,2350
1874,-14,5,2350
810,-27,4,150
522,4,2,125
2350,-14,5,150
95,-12,4,250
370,-28,5,6850
553,10,1,4338
304,-28,4,375
57,-8,1,200
1474,-15,5,400
1474,-15,5,400
1327,-21,1,1900
1327,-21,1,1900
636,-12,3,1938
636,-12,3,4867
29,-8,4,400
668,-14,4,450
157,-10,1,600
554,-39,5,6550
6,-3,1,1200
6,-3,1,1200
313,-18,5,1300
1131,-31,1,6800
554,-11,5,748
803,15,3,800
110,-5,5,550
546,-12,5,6400
546,-12,5,7150
241,-13,5,4550
2118,-26,3,150
669,-16,4,1700
371,16,1,550
371,16,1,1150
320,-14,5,1383
127,-16,3,250
82,-7,3,300
297,-13,5,15350
754,-6,5,200
916,-18,5,342
10,-9,1,1833
900,5,1,1100
900,5,1,1100
541,-4,5,200
54,-22,5,450
115,-18,5,550
150,2,5,300
143,-3,5,3700
143,-3,5,3700
143,-3,5,3700
360,-17,5,800
306,6,1,192
481,-5,4,1000
642,-13,4,300
317,-18,5,800
412,-14,1,1200
412,-14,1,1383
553,-9,5,5453
304,-39,5,7150
1508,-13,4,100
660,-6,5,550
1459,-15,5,1200
729,-6,4,450
58,-4,4,320
934,-12,5,350
2270,0,4,600
845,-9,5,1250
845,-9,5,1250
764,-12,4,2350
823,-17,4,1000
817,-30,5,950
823,-17,5,300
548,-16,4,1100
759,-22,5,3150
928,-6,5,900
398,-7,5,300
398,-7,5,300
398,-7,5,300
398,-7,5,300
34,-10,2,50
190,-6,5,6825
36,-15,5,350
1717,-15,4,700
1012,-13,5,300
574,-7,5,100
48,-11,4,550
2592,-16,5,900
497,-18,5,150
877,-18,5,5350
309,-10,3,400
869,-10,3,400
309,-10,3,12783
869,-10,3,12783
732,-14,4,2550
424,-14,5,200
301,-20,5,2500
NULL,-23,NULL,200
243,-18,5,150
322,-9,5,250
57,-2,5,9650
344,6,1,350
547,17,1,400
548,-15,5,350
659,-12,1,200
44,-11,4,500
2354,-16,5,150
941,-20,5,150
386,-13,1,350
554,-17,4,16133
304,-7,1,3250
304,-7,1,1900
707,-15,5,6350
1185,-6,1,3400
2163,14,1,1350
1899,1,5,1800
5,-10,4,250
88,-16,5,150
88,-16,5,150
837,-6,4,300
2465,-30,5,2600
381,-1,1,400
65,-7,5,117
110,-4,1,350
588,-12,4,650
1180,-17,5,1650
458,-18,3,23250
1458,-16,5,9650
477,-14,5,335
1948,-19,5,2584
444,-12,5,625
1494,-13,1,200
16,-6,5,250
372,-24,5,893
18,0,5,50
844,-13,4,184
883,-12,5,550
544,-10,4,700
328,-4,5,1000
328,-4,5,1000
328,-4,5,1000
328,-4,5,1000
328,-4,5,1000
1042,-16,5,150
236,-13,5,2350
545,-16,4,400
1715,-19,3,461
346,-6,5,400
137,-10,5,1800
674,-7,4,1575
870,-15,5,1000
820,9,2,240
138,-10,5,600
138,-10,5,600
476,-12,4,300
203,-11,5,250
76,15,5,1050
1245,-14,3,353
503,-14,5,900
445,-27,1,2965
466,-8,4,1200
1026,-13,1,4125
559,-22,3,150
1178,-9,5,250
1202,-21,5,700
248,-16,5,150
732,-9,4,800
550,-16,1,175
240,-16,1,175
550,-16,1,400
240,-16,1,400
550,-16,1,350
240,-16,1,350
924,-8,5,950
361,45,1,3717
998,-15,5,200
998,-15,5,200
998,-15,5,200
598,-15,1,1000
552,-15,5,250
589,-14,5,300
495,-13,5,100
837,-23,5,7400
19,-10,5,700
1604,13,1,650
1986,-19,5,200
863,-1,5,1250
23,-14,5,6050
230,-10,1,150
230,-10,1,150
230,-10,1,150
230,-10,1,150
135,-17,4,2083
208,0,5,1200
318,-15,4,1200
114,-14,5,175
2094,-29,5,125
271,-30,5,275
449,-8,5,1150
676,-4,5,1583
1399,-12,4,1200
263,-7,5,1300
55,-12,5,300
242,-15,5,275
99,-7,5,250
800,-15,5,150
800,-15,5,150
523,-15,5,900
539,-13,5,1500
2371,-27,5,450
608,17,1,850
17,0,3,217
NULL,1,NULL,7300
141,-13,4,7050
125,-5,4,1200
455,-10,4,583
1544,4,1,600
101,-2,5,8050
732,-15,5,650
1200,-8,5,350
498,-25,5,200
356,-12,5,8161
813,-19,5,8875
145,-12,3,23900
1224,-18,5,160
741,-16,1,2650
337,-15,1,350
317,-13,5,50
460,-17,5,240
2084,-18,5,533
441,10,1,250
560,-14,5,250
358,-29,5,400
1345,17,1,150
17,-7,1,300
15,-4,4,600
852,-7,4,5700
556,-24,1,1000
556,-24,1,1000
574,-24,5,4900
574,-24,5,4900
574,-24,5,4900
574,-24,5,4900
835,-2,3,4550
341,-14,4,7225
81,-12,5,100
336,-1,4,300
94,-17,5,30000
392,-6,5,13575
476,-12,3,1600
15,-13,5,550
508,-20,5,15200
498,-2,5,337
2331,-36,5,4000
1536,-10,3,550
2347,6,1,350
1091,-13,2,2900
2085,-11,5,150
24,-10,1,100
83,-12,5,250
2370,-19,4,600
812,-19,4,138
1328,-8,5,350
1721,-15,3,150
57,-13,5,550
144,-10,5,100
2327,-15,4,450
659,-24,5,900
1478,-12,4,150
330,-1,4,1000
65,-12,5,450
90,-11,4,1129
33,-8,5,230
2327,-34,3,400
272,-15,4,2500
302,-12,5,1050
146,-24,5,6038
26,-17,5,2600
25,-3,5,700
663,-2,5,1750
251,-12,4,900
209,-13,4,1125
2160,-56,2,1500
2160,-56,2,6750
393,-1,4,1550
1185,-10,4,975
553,4,1,350
306,-8,5,1350
363,-18,5,14150
1057,-22,5,1625
2060,-14,1,17600
211,-16,4,1000
460,-12,4,50
51,-9,4,455
347,-10,5,850
808,-6,4,628
2828,-19,4,700
447,10,1,875
340,-7,4,125
15,-8,5,250
12,-11,4,9750
654,-7,5,300
732,-3,4,300
911,-7,4,200
460,-20,5,4600
295,34,1,15150
295,34,1,15150
295,34,1,15150
295,34,1,15150
219,-19,2,1550
419,-13,5,8325
239,-6,5,200
13,0,4,250
869,-9,4,950
662,-23,5,900
355,-15,5,450
477,-22,5,443
2078,-18,5,10750
24,-8,5,150
711,-13,5,300
497,-3,4,9050
1353,-24,4,1800
566,-15,3,300
135,-4,4,50
475,-18,5,850
2354,-9,4,8750
265,-12,5,1155
874,-14,5,1200
NULL,-2,NULL,817
NULL,0,NULL,3450
392,-13,5,3000
167,-6,5,250
19,-13,5,250
228,-20,5,800
261,-18,5,250
266,-20,5,350
894,-14,5,600
78,0,5,1613
64,-2,5,264
249,-22,1,1800
1147,-29,5,1350
410,-11,5,281
744,-15,5,100
343,-8,3,8683
11,-12,5,100
285,5,1,800
655,-11,4,1300
249,-4,5,2600
489,-6,1,150
489,-6,1,150
86,-8,5,500
347,-10,5,150
77,-11,4,1600
675,-20,5,250
915,-22,5,1550
915,-22,5,1550
536,-29,1,9950
536,-29,1,9950
337,-9,1,200
543,-14,5,875
5,-7,5,400
2210,-15,5,16200
1127,-14,5,1200
118,-5,4,6600
2,-12,5,500
565,12,1,1500
565,12,1,1500
411,-6,5,550
2459,-14,5,550
739,-17,5,1400
12,-9,5,400
278,-8,5,1500
42,0,4,9725
829,-8,4,11850
829,-8,4,11850
829,-8,4,11850
56,-8,4,100
454,-6,5,4650
6,-7,5,400
6,-7,5,400
6,-7,5,400
6,-7,5,400
376,-34,5,610
160,-11,5,1800
87,-7,4,900
26,-14,5,250
148,-12,5,275
34,-14,5,1452
717,-15,5,7550
478,-29,4,584
437,-1,5,1750
684,-15,5,125
872,-16,4,850
527,8,1,20450
53,-13,4,150
551,-17,5,600
551,-17,5,650
68,-8,5,1700
355,-21,3,250
1846,-11,5,550
734,-21,5,500
17,-15,3,7463
405,-18,5,1050
87,-10,5,400
87,-10,5,400
87,-10,5,400
87,-10,5,400
123,-10,5,1650
128,-4,5,500
27,-3,5,150
506,-12,4,950
231,-12,5,346
380,-7,4,1700
1624,-2,5,200
18,-8,4,300
359,35,2,2350
193,-14,5,150
130,-17,4,400
1584,-5,5,1150
1380,-14,3,800
592,-6,5,1850
28,-10,1,1000
241,-34,5,1800
764,26,1,2750
160,-9,5,1800
535,-24,5,180
535,-24,5,180
535,-24,5,180
535,-24,5,180
9,-10,5,1450
2213,-15,1,835
328,-8,4,2750
192,-19,5,1350
668,-31,5,1100
565,-13,5,1150
695,-16,5,1100
695,-16,5,1100
287,-6,4,400
59,-13,5,2950
312,19,1,900
230,-13,5,800
556,-8,5,950
1129,-25,5,2600
1129,-25,5,2450
1,-4,5,1250
473,-27,5,600
877,-20,5,200
2306,-28,5,538
575,-6,3,750
604,-15,5,2400
604,-15,5,2400
NULL,0,NULL,3350
1279,-22,1,4450
441,-15,5,975
401,-25,4,14813
28,-18,4,200
908,-6,4,200
908,-6,4,200
908,-6,4,200
546,-10,3,363
57,-4,1,2300
909,-10,5,180
909,-10,5,180
909,-10,5,180
909,-10,5,180
470,-12,5,725
339,4,4,400
48,-8,4,1600
989,6,1,6600
15,-16,5,250
384,-16,5,250
15,-16,5,300
384,-16,5,300
15,-16,5,250
384,-16,5,250
15,-16,5,300
384,-16,5,300
558,-10,2,100
411,-7,4,200
15,-10,5,250
1222,-14,1,1750
1222,-14,1,1550
363,-10,5,100
2102,-20,5,250
906,-2,5,250
493,-14,5,700
338,-10,5,150
613,-18,5,200
2140,-7,5,233
420,-12,1,1850
281,-17,5,800
772,-8,5,2841
295,-12,3,7050
295,-12,3,7050
46,-5,5,500
388,-14,2,150
388,-14,2,150
255,-20,4,300
613,-12,5,500
14,-12,4,150
14,-12,4,150
451,-12,5,550
522,-13,5,200
646,-13,5,1300
11,-3,5,400
858,-21,4,1750
452,-9,5,1800
19,-11,5,550
362,-16,5,2150
297,24,1,1300
1371,-28,4,1050
1058,-8,5,500
878,-20,4,125
207,-10,5,125
293,-6,4,167
792,6,4,1950
903,0,4,245
1480,-20,5,400
972,-26,5,150
252,-21,5,850
910,0,2,2717
443,-9,4,550
1986,-15,5,1400
130,-4,4,1350
132,-29,5,1600
35,-16,5,550
35,-16,5,550
559,-12,5,200
331,-19,5,633
504,15,1,5650
341,4,3,100
626,-10,4,6550
464,-20,5,250
405,-16,5,750
101,0,5,5850
16,-7,5,300
517,-8,3,350
891,-9,5,200
710,52,5,75
16,-1,5,250
16,-1,5,200
250,-13,3,16400
250,-13,3,16400
250,-13,3,16400
63,-7,3,1300
373,-1,5,3750
140,-15,5,1550
770,0,4,902
592,-16,4,4105
844,-26,4,450
568,-14,5,5050
568,-14,5,5050
568,-14,5,5050
559,-4,1,1000
559,-4,1,1000
20,-5,5,150
20,-5,5,150
573,-11,5,2500
96,-21,5,450
316,-18,4,342
1248,-16,4,400
653,-14,5,2140
114,-6,5,400
1203,-10,4,350
730,-17,5,100
785,-8,4,850
416,-9,3,200
501,-8,5,350
709,-8,5,475
349,-7,5,200
138,-19,5,875
498,14,1,500
98,-33,5,550
84,-9,4,6550
481,-11,5,100
558,-11,5,1100
277,-5,5,233
46,-2,4,1167
388,-11,1,5950
353,-7,4,1400
26,-10,5,250
353,-8,4,500
52,-10,5,225
52,-10,5,225
52,-10,5,225
52,-10,5,225
52,-10,5,225
107,-6,5,1075
4,-13,5,1050
172,-11,5,875
526,-18,5,1100
871,-29,3,1000
810,-13,4,8750
876,-29,5,100
543,-21,4,1600
0,-16,5,2950
661,-10,5,6950
248,-15,4,583
9,-4,4,800
18,-11,5,9750
888,-15,1,1225
299,-14,5,533
63,-8,5,463
14,-9,4,167
1052,-18,5,1600
413,-16,5,16000
23,-4,4,7500
102,-13,5,10075
343,-10,1,100
934,-20,5,250
30,-15,3,16150
349,-11,5,2600
586,-19,5,1136
586,-19,5,1136
586,-19,5,1136
1039,-12,3,100
575,-14,3,200
118,-13,5,5050
79,-10,4,1000
20,-8,4,8250
72,-20,5,13950
30,-7,1,100
478,-23,4,1500
96,-10,5,200
2047,-23,5,6500
92,-12,4,150
911,-2,5,2150
439,-6,1,283
514,-10,3,150
6,-2,4,50
1064,-17,1,400
297,-10,2,1383
12,-9,5,1400
79,-10,5,1350
209,-12,5,500
NULL,-7,NULL,150
127,-17,2,900
127,-17,2,900
933,-9,1,250
2167,-6,5,1100
370,-1,4,200
362,-15,5,9000
209,-8,4,584
948,-20,4,600
674,-17,3,125
2234,7,1,15800
351,-11,5,200
365,-22,5,1300
391,-14,4,1200
1886,-13,5,150
892,-19,5,50
NULL,-3,NULL,300
162,-23,5,250
28,-9,4,500
479,12,3,550
87,-14,4,2050
1632,-24,5,2375
955,-16,4,1200
955,-16,4,1200
423,-18,5,1575
438,-16,5,1300
760,-14,5,27100
982,-22,5,350
91,-2,5,610
1539,-17,4,350
478,-8,1,200
478,-8,1,200
751,-17,5,902
751,-17,5,902
751,-17,5,902
751,-17,5,902
90,-5,4,975
138,-12,5,550
410,-11,1,107
544,-6,3,1383
317,-8,3,350
317,-8,3,350
317,-8,5,350
317,-8,5,350
20,-5,1,300
20,-5,1,300
20,-5,1,300
20,-5,1,300
1220,-19,5,400
939,-21,4,650
513,3,1,600
513,3,1,600
513,3,1,600
333,-14,5,7650
2155,0,4,2600
2076,-18,5,473
834,-16,5,1000
499,-17,4,300
712,-29,5,1650
2322,1,4,1550
16,-11,5,250
16,-11,5,250
1051,-33,5,600
576,-8,5,1223
49,-11,4,200
221,-11,5,1000
1463,-10,5,350
666,-29,4,2650
490,-16,4,490
1173,-19,5,1350
989,-12,5,2750
735,-20,5,553
917,-10,4,133
344,-17,4,200
91,-10,5,4000
548,-18,5,150
877,-10,5,2300
109,-6,5,600
423,-5,5,550
506,-6,5,1550
1961,-13,5,300
96,-7,1,450
399,-12,5,1400
329,-20,5,500
546,-13,3,150
384,-11,5,150
2347,-8,4,11350
1098,5,1,450
2312,-18,5,7450
283,-10,5,5200
1081,-3,4,400
2115,-22,1,13900
2115,-22,1,13900
1463,-8,1,1500
1463,-8,1,1500
300,-8,5,350
543,-22,5,1300
366,-16,5,200
22,11,1,200
1966,-33,5,5850
477,-15,5,3008
418,-16,4,1850
292,-15,5,5150
150,-10,5,200
150,-10,5,200
150,-10,5,200
150,-10,5,200
150,-10,5,200
150,-10,5,200
190,-18,5,1650
332,-2,3,400
337,-14,4,100
49,-8,5,150
342,-6,5,1350
342,-16,5,183
846,-7,5,200
107,-9,5,200
2161,-7,5,200
437,-6,5,160
24,-6,5,4350
76,-10,2,250
612,-14,5,150
750,-9,5,283
2300,-16,5,500
3111,-17,5,1450
122,-6,5,264
3,-21,4,8500
350,-14,5,6550
1527,-2,5,200
856,-22,5,280
856,-22,5,280
856,-22,3,280
856,-22,3,280
66,-18,4,180
446,-9,5,425
560,-9,5,425
446,-9,5,250
560,-9,5,250
2464,-17,4,200
502,-17,4,12250
417,-13,4,2450
459,-45,5,8161
2132,-9,4,150
665,-10,4,1825
75,-4,5,450
49,-1,2,11825
132,-4,5,900
501,0,3,400
398,-11,5,150
689,-24,5,532
17,-7,5,5350
98,-8,5,100
233,-15,5,650
509,-41,4,7575
8,-12,3,373
2468,-23,1,3000
2468,-23,1,3000
2468,-23,1,1000
2468,-23,1,1000
34,-13,4,250
314,-12,5,475
1042,-3,3,200
1015,-20,5,113
2342,-10,5,900
866,-15,4,533
297,-8,5,1600
1083,-11,5,1600
1049,-21,5,1400
195,-12,5,200
354,-15,5,7700
465,-13,5,1650
646,-2,3,1850
1461,-16,5,200
1461,-16,5,200
1461,-16,5,200
1461,-16,5,200
2003,-20,1,343
45,-11,5,7550
512,24,1,250
252,-16,4,185
252,-16,4,185
252,-16,4,185
252,-16,4,185
36,-4,3,4850
442,-13,5,4000
435,-14,5,917
1104,-12,3,1000
162,-17,5,700
1313,-1,3,700
299,-9,5,1550
896,-16,5,650
490,-13,5,1400
656,-9,5,200
898,-20,1,7000
461,-14,5,4100
321,4,1,1550
321,4,1,1550
261,12,1,2600
90,0,2,381
346,-12,5,444
643,-18,5,1400
271,-19,5,NULL
27,-6,5,317
531,-15,4,267
2372,-18,4,1050
906,-24,5,600
486,-8,5,3400
19,-4,5,5450
1115,0,3,1300
415,-8,2,250
692,-13,5,3300
50,-16,4,700
263,-4,5,6038
299,-18,5,2100
299,-18,5,2300
377,-11,3,7000
468,-17,4,1475
23,-21,5,100
606,-6,5,150
603,-6,5,100
750,11,1,400
819,-28,5,2500
153,-15,5,500
2181,-13,5,1750
608,-10,5,400
166,-33,5,2050
326,14,2,1700
808,-10,5,150
826,-16,4,28300
870,-25,5,11300
67,-5,4,2283
1222,-16,5,1500
5,-8,5,1600
834,7,1,3600
567,-5,5,1825
358,-7,5,200
692,-14,5,200
71,-1,5,330
634,-4,4,250
123,-12,5,300
371,-11,5,750
545,2,3,900
34,-4,5,281
792,13,1,481
3293,-40,1,2150
3293,-40,1,2150
778,-25,2,4338
15,-9,1,1850
59,105,4,2500
640,-11,5,61
8,-6,4,5200
1100,-20,5,250
607,-14,1,400
607,-14,1,850
607,-14,1,400
1123,13,3,479
1329,-25,5,3450
222,-9,5,2350
584,-14,4,350
14,-9,5,213
1240,-21,5,3300
25,-5,3,100
25,-5,3,100
421,-14,5,4800
790,-7,5,5950
1002,1,5,850
67,-6,5,975
142,-8,5,4450
31,11,5,1000
285,-12,5,1250
1796,1,4,2600
1796,1,4,2600
1796,1,4,2600
1796,1,4,2600
420,-15,4,200
2086,-10,5,150
93,-12,5,250
89,-6,4,450
318,-9,5,1000
2273,-15,5,650
1117,-4,5,13050
1117,-4,5,13050
1117,-4,5,13050
1117,-4,5,13050
607,-21,4,150
952,-14,5,200
229,-24,5,150
502,-7,1,1200
695,-2,2,650
625,-15,4,3000
2140,-13,5,700
77,-36,5,350
483,13,2,5300
1401,-14,4,500
364,-18,5,733
434,-14,3,5000
347,-10,5,100
207,-28,4,1700
1453,-16,5,800
2100,-15,5,200
1232,-22,5,450
1096,-20,5,1167
419,-4,3,400
495,-15,1,500
495,-15,1,900
745,-18,1,1100
2444,10,1,275
68,-15,5,550
329,1,5,250
32,-14,4,150
854,-13,3,458
644,-15,5,1750
292,-14,5,150
2647,13,1,900
413,-13,4,375
2113,-16,5,394
457,-24,4,2150
338,-10,5,1500
96,-29,5,1950
1158,-15,5,138
2374,-10,1,408
68,-16,5,400
112,-15,5,274
42,-8,4,1700
509,-16,5,200
119,-9,5,1250
119,-9,5,1250
318,-11,5,444
334,-10,3,1000
2127,-22,5,1383
132,-13,5,3700
630,-14,1,150
818,-12,5,5250
169,-7,1,3300
169,-7,1,3300
139,-7,5,1200
81,-7,5,1200
139,-7,5,2100
81,-7,5,2100
349,-14,1,1000
102,-7,5,800
12,-10,5,400
930,-16,5,400
341,-14,4,4500
383,2,5,430
30,-32,2,400
824,-20,5,7000
31,-4,5,2600
461,-6,5,1450
714,0,5,1950
2048,-17,5,4400
855,-18,5,1800
25,-6,4,250
534,-15,4,850
182,-16,5,400
562,-13,2,150
28,-15,5,133
55,-4,4,1000
237,-14,4,1850
34,-11,4,1550
34,-11,4,1550
347,-5,5,13700
NULL,7,NULL,150
927,-21,5,125
223,-15,5,16133
58,-6,4,150
416,-13,5,628
1085,-19,5,3450
491,-16,4,200
181,-14,5,500
356,5,2,200
305,-18,5,1400
34,-14,3,950
297,11,2,1825
78,-8,5,250
449,-12,5,1050
59,-10,4,100
1033,-5,5,2500
381,-8,4,584
698,-17,5,50
1928,-20,5,6550
2216,-30,5,342
21,-9,5,1850
21,-9,5,1850
898,5,5,1250
797,-20,5,584
310,-39,4,1050
138,-14,5,400
25,-5,5,500
581,-19,5,150
27,-11,5,200
380,-11,5,600
26,-8,5,100
1515,-3,4,950
734,-10,1,1500
761,-11,5,983
571,-13,1,1450
NULL,-8,NULL,1517
24,0,4,300
545,-13,4,600
545,-13,4,600
826,-13,5,1000
638,-14,5,300
2225,6,1,8050
298,-19,5,350
785,-9,4,213
1741,-19,1,200
94,-11,5,400
804,-19,5,300
839,-22,4,100
23,-7,5,150
2096,-13,4,3950
409,-4,3,100
NULL,-9,NULL,5200
927,-26,5,800
367,-17,5,15800
432,-13,5,150
325,-16,1,8850
609,-11,3,250
1293,-14,2,3750
1076,-12,2,19450
473,-15,5,300
100,24,1,1750
315,-9,5,1383
1031,-24,1,1550
1031,-24,1,1750
1031,-24,1,1550
613,-13,5,150
57,-15,4,250
1607,5,1,150
14,-19,5,700
31,3,1,300
318,-12,4,1183
2328,-7,5,450
243,-10,4,1800
827,28,3,200
497,-8,5,150
186,0,5,8950
96,-14,5,400
1204,-8,4,725
182,-26,3,1200
39,-10,4,358
2106,-7,5,10700
126,-12,5,2300
1453,-17,4,8150
304,-13,4,1383
88,-27,5,650
6,-7,5,185
816,2,5,1250
367,-14,5,417
707,-10,5,275
501,0,5,570
1027,-9,5,1500
2120,-20,5,300
476,-16,4,650
25,-10,5,950
1335,-29,3,1400
NULL,-14,NULL,1250
581,-16,2,1350
138,-14,5,750
1138,-17,5,300
284,5,1,200
364,-6,5,1250
2627,-19,5,3400
171,-11,5,800
761,-6,5,1194
325,-12,5,650
1978,-13,1,925
510,-11,5,450
77,-8,4,1100
354,-9,4,9650
694,-26,4,1650
1078,-20,4,150
857,6,1,2200
296,-24,5,213
100,-27,5,1500
100,-27,5,1500
751,-25,1,400
2282,-14,5,800
83,-10,4,6400
10,-15,5,1000
423,-7,5,10475
2109,-17,5,600
67,-11,5,3520
1080,-16,3,900
227,-25,5,4000
313,-9,5,9600
148,-6,4,1383
835,-3,1,200
505,-22,4,250
447,-8,5,6350
936,-14,3,1750
425,-10,5,1250
164,17,1,50
507,-3,5,150
19,31,1,100
531,-19,1,1550
343,-22,3,363
822,-20,5,800
1196,-1,5,700
796,-14,4,300
527,-15,2,1383
452,-17,5,363
8,-6,4,75
1,-12,1,1050
1,-12,1,1050
2197,-20,5,1900
279,1,3,1950
43,-12,4,350
2096,-11,5,800
76,-12,5,1700
28,-6,5,1850
2260,-35,5,1900
2260,-35,5,1900
412,-40,5,1700
708,-20,5,1200
471,-21,5,10500
460,-14,4,2425
8,-5,5,450
21,1,5,7500
2140,-19,4,1836
867,-21,4,500
851,-27,4,1870
673,-11,5,4350
14,7,3,150
2184,0,3,1600
742,-15,4,160
742,-15,4,160
555,-18,4,250
505,-16,1,200
505,-16,1,200
420,-12,3,100
233,-20,4,630
62,-12,1,266
62,-12,1,266
578,1,5,1300
349,-16,1,442
13,-6,5,2600
366,-35,5,340
443,-8,5,950
892,6,1,1750
30,-13,5,650
897,-27,5,1700
1810,-21,5,850
469,-30,5,2685
333,-19,3,1600
942,-12,5,740
942,-12,5,1025
24,-9,5,900
1464,-6,4,150
869,7,1,17050
694,-24,5,1350
348,-18,3,220
318,-8,4,12275
309,-8,5,3400
309,-8,5,3400
309,-8,5,3400
309,-8,5,3400
542,-12,5,1600
999,0,5,400
18,-17,5,600
272,-14,5,6150
761,-18,1,250
397,-18,1,250
761,-18,1,300
397,-18,1,300
883,-7,5,532
765,-7,5,425
504,-10,5,350
253,-17,5,2250
675,-6,1,6250
485,-9,5,225
889,-3,5,950
97,-12,5,150
164,-20,5,8400
497,-20,5,8400
164,-20,5,3800
497,-20,5,3800
717,-4,3,150
889,-28,5,160
4,-6,5,1017
2374,52,1,400
1891,-20,5,400
277,-15,3,1800
390,-15,5,800
815,-6,5,150
1226,-13,3,1800
692,-22,3,6300
1077,-21,4,1800
384,-12,5,1550
384,-12,5,1550
1704,-69,1,8050
2369,-6,4,13300
197,-7,5,1600
256,-22,4,500
188,-19,5,442
574,-44,5,1650
772,-14,5,250
313,-1,4,150
417,-7,4,175
1057,-34,5,800
2265,8,2,1800
372,-5,5,2050
232,28,1,263
782,-13,5,251
562,-9,1,1754
562,-9,1,1754
831,-17,5,450
499,-11,5,3100
27,-11,5,150
390,-6,3,800
153,-15,4,300
37,-8,2,6100
37,-8,2,6100
876,-39,5,5250
98,-5,4,200
1823,-7,4,1625
564,-13,2,156
572,-13,2,156
564,-13,2,156
572,-13,2,156
564,-13,2,117
572,-13,2,117
30,-15,5,3500
437,-1,5,950
152,-27,5,158
13,-18,5,350
865,-15,3,1100
98,-9,5,900
43,-15,1,500
965,-14,4,400
339,-6,5,1850
645,-18,5,500
NULL,-27,NULL,673
203,-4,5,350
1797,-24,5,20100
1797,-24,5,18000
1344,-23,4,350
209,-14,4,217
1538,-5,5,350
1851,-17,3,250
1851,-17,3,250
1851,-17,3,250
1851,-17,3,250
13,6,5,162
13,6,5,162
13,6,5,162
268,-7,5,1000
431,4,4,1150
636,-21,5,900
2019,-9,4,250
27,-8,5,250
14,-17,5,1836
141,-22,4,250
938,-18,4,3500
693,-12,4,1050
7,-2,5,100
701,-21,4,450
701,-21,4,450
701,-21,4,450
372,-17,1,17050
51,-9,5,180
1454,5,2,500
449,-6,4,638
906,-10,4,175
214,-28,4,30000
1030,-19,5,180
107,-15,5,125
107,-15,5,125
68,-21,3,1223
1572,-21,5,1000
606,-8,5,3733
188,-4,5,250
122,-7,5,16100
971,-12,4,500
449,-15,5,3900
5,-11,5,250
138,-9,5,375
80,-10,5,1000
80,-10,5,850
1087,-8,5,6800
626,-6,3,479
474,-11,3,300
1088,-3,3,800
916,-22,5,4250
916,-22,5,4250
118,-4,5,1900
306,-8,4,167
914,-3,5,2050
293,-20,5,150
74,-9,5,175
74,-9,5,175
414,-17,4,1950
944,2,3,20500
648,-2,5,1250
648,-2,5,1250
1885,-8,5,522
1307,-15,4,650
16,-6,4,2600
81,-22,4,6038
1075,-19,5,100
49,-11,5,250
84,-14,5,1500
NULL,-8,NULL,2000
NULL,-8,NULL,925
1045,6,1,1500
70,-9,1,400
70,-9,1,100
90,-12,3,300
331,-16,5,270
342,-17,5,1743
2437,-23,5,1666
3133,-22,3,700
368,-19,5,10600
52,-20,5,400
382,-6,1,1600
701,-6,1,1600
382,-6,1,1450
701,-6,1,1450
9,-7,5,850
358,-7,4,16133
2,-15,5,2450
56,-9,5,1383
93,-14,5,8600
374,5,1,1450
87,-16,5,3550
837,-3,4,2600
579,9,1,200
24,-19,5,400
410,-13,5,550
410,-13,5,550
370,-15,5,6200
23,-12,5,200
619,-21,5,450
500,-21,4,200
256,6,1,200
144,-13,5,867
16,-5,5,1300
137,-22,5,1300
761,-22,5,7563
532,-13,5,2050
325,-4,5,650
50,-4,5,1100
80,-13,5,6600
281,-14,5,2900
528,-18,5,100
342,-14,3,550
360,-2,5,650
1155,-15,5,200
499,-14,5,165
88,1,3,1150
105,-14,4,1700
105,-14,4,1600
105,-14,4,1600
87,-17,5,850
158,-11,5,11450
118,-12,5,450
118,-12,5,400
319,-15,4,2400
301,-1,4,263
30,-4,5,2650
357,-3,4,500
7,-7,5,330
22,-15,5,1700
444,-14,5,10893
878,-38,5,167
677,-7,5,1500
171,-14,5,1600
742,-21,4,850
329,-25,5,1050
361,-12,5,450
875,-11,5,3650
425,-6,5,100
492,-1,3,353
1476,-9,5,1050
321,-15,4,8600
7,-12,5,7625
2291,-17,5,500
16,-9,5,400
816,-15,3,167
142,-11,5,413
2348,-14,5,7800
26,-10,5,950
1506,-8,3,600
657,-14,4,9950
205,-8,5,1000
533,-1,5,584
82,-1,5,1700
430,-11,5,200
352,-13,2,1300
352,-13,2,1300
310,-12,5,100
909,-17,5,500
270,-13,5,100
2315,-9,4,200
164,-12,5,400
856,-22,3,1700
400,-20,5,300
166,-13,5,300
1105,-14,1,75
1046,-22,5,3000
1483,10,1,800
145,-11,5,1175
352,-15,1,9750
320,-3,5,6800
22,-19,5,550
16,-18,5,150
363,3,5,600
815,-15,4,150
26,-5,5,500
352,-12,4,200
476,-2,5,600
476,-2,5,600
74,0,5,200
498,-14,5,14000
567,-12,5,1350
43,-6,5,175
810,-16,4,600
295,-8,5,250
305,-7,5,283
1732,-14,3,200
351,-26,4,950
421,-17,4,1147
143,-8,5,128
120,-13,5,150
528,-5,1,7650
796,-14,4,500
297,-21,3,25200
857,-21,3,25200
297,-21,3,500
857,-21,3,500
297,-21,3,25200
857,-21,3,25200
2900,-22,4,7000
51,-10,3,1200
856,-27,5,400
203,-13,5,1450
81,-5,3,700
1194,-5,5,150
485,-7,1,600
1280,-12,5,350
15,-20,5,100
971,-20,5,1400
825,-20,5,1400
971,-20,5,1400
825,-20,5,1400
442,-13,1,400
442,-13,1,400
394,-7,5,200
829,-18,5,350
521,-15,5,300
814,-10,5,650
67,-12,4,300
468,-16,5,3600
872,-14,5,9725
2331,2,5,6550
120,-13,5,8550
291,-3,5,975
5,-15,5,1300
879,-13,5,250
687,-9,5,1650
816,0,3,1110
90,-11,5,600
90,-11,5,600
123,-16,5,200
2007,-5,3,950
9,-14,2,700
1639,-6,5,610
2038,-13,4,275
2038,-13,4,275
2038,-13,4,275
35,-11,3,400
27,-5,2,7875
83,-5,2,7875
27,-5,2,275
83,-5,2,275
338,-16,5,5950
305,-9,5,584
26,-6,5,500
303,-15,2,1250
509,-15,5,1900
1206,-10,5,500
827,-10,5,2900
29,-7,5,8160
360,-12,1,8350
610,-20,5,875
1465,-23,5,1000
800,-20,5,150
1080,-2,4,5000
20,-12,5,150
665,-5,5,950
810,-5,5,1310
1165,-35,5,3700
1172,-13,5,200
731,-12,4,1200
12,-29,3,444
72,-12,5,300
765,10,4,4105
781,-14,5,950
139,-6,2,2150
180,-23,4,3000
520,-14,5,150
232,-9,4,350
311,-28,2,1050
399,-6,5,600
2325,-27,1,150
601,-20,5,900
601,-20,5,850
43,-14,4,550
1190,-7,5,300
546,-8,2,150
330,-19,5,750
479,-17,5,3050
4,-8,5,700
166,-14,5,150
1110,10,1,2900
492,-4,5,1700
227,-1,5,200
2104,3,5,1500
1464,-24,4,1383
883,-19,5,3500
227,13,1,700
227,13,1,700
1077,-28,5,175
504,-12,5,1550
678,-15,4,170
185,-9,4,10225
322,-9,5,2600
322,-9,5,2600
980,-15,5,100
1543,-14,4,500
497,-21,1,8683
745,-13,5,400
745,-13,5,400
500,-17,5,750
82,-11,5,1700
943,-14,1,4700
495,-25,5,300
339,-10,5,600
138,-7,3,250
710,-13,5,120
710,-13,5,120
856,-22,4,4800
198,-13,5,650
1266,23,1,1050
413,7,1,350
521,0,5,950
521,0,5,950
356,3,5,150
356,3,5,150
1221,-16,4,450
385,-10,5,125
385,-10,5,125
520,7,1,2000
496,3,2,5300
522,-8,5,3200
20,-14,5,2490
69,-9,4,4600
256,12,3,313
485,-13,4,250
1780,-12,5,800
612,-9,4,4338
469,-14,5,850
469,-14,5,850
156,-10,1,490
2317,-7,3,7000
1219,-21,5,1950
186,-4,4,12400
594,-14,5,1500
780,-21,3,200
387,-11,4,100
257,-18,4,850
2473,-23,4,350
2473,-23,4,350
552,-21,5,300
445,-14,4,50
148,-7,4,350
506,-6,5,5300
324,-12,5,1082
189,-11,4,533
220,-14,3,2900
1081,-10,5,625
351,-12,3,500
793,9,1,1550
386,-20,5,1000
212,-8,5,2841
245,-14,5,700
1564,-18,4,300
2348,-35,4,12275
308,-16,5,510
347,-6,1,1250
288,-10,5,367
534,-26,3,125
34,-14,5,500
574,-17,5,2700
1120,-1,5,150
455,-12,5,1850
455,-12,5,1750
23,-13,2,250
1318,7,1,9050
1318,7,1,9050
1318,7,1,9050
1318,7,1,9050
1318,7,1,9050
2027,-13,5,5200
284,-14,5,450
28,-36,3,1250
612,-36,3,1250
28,-36,3,1250
612,-36,3,1250
28,-36,3,400
612,-36,3,400
745,-5,5,6250
2358,-21,4,100
760,-13,5,150
962,-16,4,400
21,-24,5,275
103,-6,5,1200
360,2,4,150
528,-12,5,4338
499,-23,5,700
499,-23,5,700
22,-14,5,2600
15,-22,4,300
677,-8,5,3100
